-0.02335057649610417
-0.08849459110530612
-0.0018256148769473393
0.021949126846819447
-0.004044323401206187
0.03719861105036205
0.0042218891901088995
-0.015486683429914865
0.0719371491612401
-0.009041536277844691
0.1576747232440226
-0.021982806004884257
-0.08800951059162475
0.012633750618060989
-0.008354734894446695
0.01675373568905683
0.04496178859935349
0.061927600934768096
0.06806723973480662
0.06165140472841663
-0.00718331037323356
-0.14975464291361965
0.15156940854312895
0.007168514145456772
0.16467657545839337
-0.10835645577228677
0.10613308736018061
-0.27321663212793823
0.07339687221693009
-0.013682411908507768
-0.09631174782364017
-0.21655513726638065
0.00600563189985117
0.07260023969671109
0.11615350822838887
0.218184187518999
0.09561660213505209
-0.045790901715093035
-0.06257795072561338
0.01840519530806469
0.04436724674040664
0.0860744911373369
0.065841872066049
-0.016355980938056076
0.20031281123869213
0.2426765459846483
0.4334936021752794
0.16715157712464848
-0.10835100856161886
0.020675898556481533