-0.0028974426471842694
0.004304082282997081
-0.07306730220294243
-0.04196332314766445
-0.044842714452888115
0.022355801390118783
-0.008579565399744544
-0.06037674394261368
0.08267382455911697
0.1539383083823309
0.06492196189767836
-0.04591180325929092
-0.05472535216354817
0.047081391418016295
-0.08725612373971724
0.009591669079443825
-0.008489722294199782
0.027207479081208207
0.042416363402260834
-0.01195158619015219
0.03521652390534246
-0.02525356134227028
-0.08262195685338786
-0.04380009967879651
-0.14149315281585623
0.07898445981819185
-0.04585969169744152
-0.013289317913128323
0.04475350404183574
0.0869715370331858
-0.02600814282458585
0.10257787812250918
-0.04463269461928401
-0.0486003300652509
-0.016075343586086942
0.13198595267636337
-0.05474217447143597
0.04709504099014035
-0.028530071413717915
0.09336452591400099
0.08098751913944084
-0.06447257046836227
0.0776858897218692
0.07829399275939676
0.05685505827909584
0.07635473593401643
0.03883425692703452
0.04052950068441461
-0.00701989038662111
0.008226909344449192
-0.03972748144510303
0.0016894965586213802
0.13748173616811457
0.10313295970786845
0.008535556809410521
0.03818935909578686
0.05797335934694577
-0.03225590033130025
0.04022656419790335
-0.01049862013320639
0.027277781978605472
-0.009902375174207351
-0.03253212549285112
-0.09246895297922382
-0.012803738869709107
-0.06372614527652015
0.0025354122520310175
0.0770987959270869
0.011644050868390734
-0.03854349608292097
-0.039662365705736745
0.022632899034993218
-0.05519734596863434
-0.005117898797653942
0.023756706891724783
-0.03169094494966483
0.014714383221978374
0.04265288824339122
0.020915460253027283
-0.0712776953089729
0.010117306707855434
0.03950517574504253
-0.040296944505529286
0.004403684777755306
-0.0620692298216012
-0.06553582669332123
-0.018483093308454403
-0.09242446963414898
0.09439157348587417
-0.04033488703368277
0.061517171413838806
0.0678625405952679
-0.036402244543281524
0.01238057193357171
-0.1025695739372811
-0.016375041625444092
-0.020922815893549256
0.03771745021765995
-0.0025959324130827815
0.0547442440256871
-0.0014933229017919708
-0.0218087968831028
-0.016261664877007066
0.040130006613069306
-0.004034650350284027
0.0960317210355565
0.08958024204264564
0.0028046423754374186
0.00509888052974155
0.01768453346992737
-0.035959803961495874
0.09055857881494311
0.0030683016120621734
-0.015340199301167297
0.0026982672364620377
-0.07497910741232278
0.010371268724611062
-0.04568064074875187
-0.01848618948250985
-0.02332179277914525
0.04425788564995302
0.05712204869077006
-0.049270903548231854
-0.0325606182175451
0.010568945876171298
0.03500683337378383
-0.021103441951803744
0.001332127720746791
-0.06807792670511219
0.06755298448969783
-0.09498428867564482
0.055526963460479396
-0.030707356305866313
0.05010451938559296
0.07023581021603154
-0.08992680360823078
0.01368824195190629
0.023692641558441065
0.06221955484735
0.11452189196818796
-0.004387107337520805
-0.05717402249714269
-0.039400453816569085
-0.025736615242970103
0.01679445363326941
-0.03769953190380265
-0.05301229863967283
-0.0069609681723184855
0.00638832595223452
0.033959162290805256
0.044110958597766835
-0.029432525392898572
0.006701254669266726
-0.09871387997573934
-0.026218278670277356
-0.005975135725091328
-0.06827751635964134
0.0022128828213323634
-0.007678249503821896
-0.05758277622053644
0.0662350092835588
0.08569756720461964
0.03463077317178812
0.04730077719461638
-0.04885737644363975
-0.07966313457961884
0.047616272129061395
-0.007939683685144661
-0.007919777963841463
-0.04607908237658281
0.034139595790443004
-0.08151181977449629
-0.004970009541888691
0.009362255571065075
0.014994062595657038
-0.14885581499299327
0.06352700200516888
0.028696552539561646
0.04278767480374099
-0.07612830689362222
0.025776845070283345
-0.03564466140252545
0.037240378791284376
0.0566365255004895
-0.05515154297562741
-0.02817536513359406
0.019713770943655784
0.039358837385756136
-0.006024271907671665
0.0034889453821264193
-0.056506910750497595
0.013526989556962778
-0.045232362851814346
0.022779898534034945
0.045164358963310544
0.02434294339521176
-0.07285380971613777
0.02974900591314118
0.0556416013407646
-0.0026728362975591505
0.0012826095051310569
-0.10909797569609762
-0.04052223434622538
0.026328118237760097
0.054029469159834025
-0.00988393719761589
0.021998374133486265
0.11410762422168086
0.049876651138900004
0.0225030711167011
-0.0013304571886865399
-0.05447220422061788
-0.0358510311597143
-0.04215367330444881
0.0559278888864636
-0.04753311797392686
-0.006762201527947392
-0.047637055390438075
-0.022985399227944528
-0.04659947843514426
0.004337429755253602
-0.016990096754115093
-0.08510695322702744
0.006331194535686993
-0.057780309124994066
-0.019234856017197443
0.04915906443861998
-0.06465673340383687
-0.008446824660040798
-0.012843986028858338
-0.03681398193788205
-0.022174503398853462
0.032238011758295854
0.043618401641207734
-0.0011500123697232641
-0.0793057168043789
0.032147299744290814
0.009653357026244343
-0.06389900535285542
0.05914889298614678
-0.06449743198634085
-0.03056931488774704
0.029336911992041734
0.01106026199425899
0.01928559607110346
-0.0015427461892457697
-0.01453001061296453
0.04121294110321391
0.04012321613266968
-0.031323528912227665
0.04895631445128107
0.0406439906439148
-0.04412447349416974
-0.04264444741731411
0.015760011046315848
0.005913910475533731
0.07199026578245228
0.06514118463487859
-0.03235103783073312
0.012771010868638603
-0.027136513505308567
0.009169950159824546
-0.1370963761979818
0.03485211562651454
-0.037620628691875505
-0.03068654165808564
-0.008711773475961413
-0.05399267475101606
0.04973748008727876
0.0032534875257828446
-0.0660126400399618
-0.017104009080525395
0.02885540659432268
-0.04261127860614523
0.05242384330769657
-0.01489770615125952
0.031400164744094974
0.03401366984172091
0.020814319609811407
0.02776623239577444
-0.0216104520320807
0.005205387265436656
-0.035028523082009315
-0.02187641382947621
0.008742849527758452
-0.07232938000220115
0.012835708095224893
0.04898939052233471
-0.041497457543497866
0.0632167994250915
-0.020281848300541614
0.0215976350622451
0.02198207505488021
-0.008667745741085557
-0.04770841226365465
-0.018313897748316064
-0.1140740369621428
0.0215023187456524
-0.03834294149984735
-0.040138669084381504
0.05204255833397195
0.025551610206409746
-0.02017660179406911
0.05577012710035125
-0.033852777846740886
0.010795146864726884
0.0749621409836135
-0.012434951678758646
-0.0017424127921896104
-0.04907023415774734
-0.02199205039236833
0.033489912557781665
-0.053450003456782004
-0.02918242107337232
0.01462669724346634
-0.028312889653223858
-0.06724875804682218
-0.004715618288767499
-0.05122576242423194
-0.06295649637169214
0.020632051942943385
0.07524686742879699
0.08388781986411697
0.08424790496546344
0.05148580485377133
-0.024949648603684028
0.03680962049451367
0.026153977552447222
0.06831962317033298
0.011289017556578398
-0.025512283106395115
-0.038295142888535784
0.07042001069196237
0.023026165119088005
0.03179284392708379
-0.0037424410812362707
0.016159992607427686
0.004706525382154204
-0.012978252734495441
0.003655123190990582
-0.024745635872627448
0.06402007424231396
-0.041438858193890385
0.013863106955491639
0.011738267689260192
0.026260352256850743
0.025330417821000192
-0.01337769483138985
-0.010237483796639402
0.07686263232832728
0.10686783644383488
-0.04142620550532081
-0.040200746656539076
-0.09379014917440635
-0.02825120586273696
-0.019913776554701508
0.01719427220258444
0.04425004898412616
-0.04451318934049992
-0.049595122964519324
0.012081763942934564
0.03514537614476759
0.026855950058199088
0.006608662023424919
0.03717517999618907
0.02279921960833723
-0.12662384958973863
0.021562823497979947
-0.03451836441741934
0.026118549654965163
-0.011042289232762714
-0.03660085839404476
-0.05341710891376786
0.07879858912958942
-0.04610756372488643
0.07193315091762668
-0.04980962403081876
0.011593462768548682
-0.047905069949708216
-0.05081893520747905
-0.023354634275465566
0.03666254869015855
0.0029757366505574275
0.0862826958858392
-0.06132562780078893
0.10247290711169557
0.021003314648520902
-0.029723931915173717
0.008516920520793825
0.008342835918590943
0.01414333347934136
-0.0223400671105843
-0.02018621812643041
0.02504440273232163
-0.013695234354165404
-0.05875177707527388
0.07127362632411863
0.006296901142060618
0.0021101763216868773
0.034192470907691626
-0.09266505300542704
0.008801327809441206
0.03611087942831227
-0.0542032095609295
-0.0005527664413513261
0.04002492176760382
0.048955364461153145
-0.03867352833358737
0.026453419985062603
0.0013466784153100526
-0.05456271887287639
0.025414384126282365
-0.04718299058961969
-0.022153814991636947
-0.0684224661620257
0.09736287457148256
0.06416502064195762
-0.009884802372005716
-0.0009094628312166898
0.051172503548516345
-0.07592574449243182
-0.047609820463559854
0.0328122072582448
-0.0001002873118995664
0.01100858598444612
0.007853097904717306
0.015622338215993401
-0.012143735971275013
0.042912669523299904
0.06989039758620569
0.1181327376275751
-0.07468048087005949
-0.026793326177915452
0.031182259132695796
0.023259520527583233
0.03992198797236523
-0.00968216415343974
-0.043005794420086445
-0.021964255602888737
-0.0860099078025157
-0.03602442337195138
-0.03042389945554376
-0.08634961070997078
0.02938437460497158
0.03076363786350369
-0.0009248618797318085
0.07113897478535725
-0.08357386549246414
-0.053885237684759765
0.042046676071771705
-0.08838962403942456
0.05414241047113886
0.021284435634957084
-0.07806298785425186
-0.05875552372990467
-0.014406128911636458
0.03744396163901276
0.046493027797362516
0.08098659511509396
-0.04148267340279555
-0.029150068943905753
-0.08363898230071473
-0.02128396074179536
0.015574265815098225
-0.07124022215473207
0.08546427144965116
-0.021470246033342636
-0.04156274617917501
0.028416945490775444
-0.019168894394439803
0.010955495591730487
-0.09339656246500513
-0.11386623211119297
0.04138950762632077
0.015948811807214563
-0.03684488908146199
0.0387920376222021
0.03489770867719011
-0.05801109296374998
-0.09333146705451588
-0.00913572741174536
0.02661070351042961
-0.02244905675468239
-0.00011179131833276676
0.02621132694800899
-0.013570767540466785
-0.022330604716980104
-0.0266129714701629
-0.07316734821547652
-0.017833058407544573
-0.09688121143364674
0.045305702628919975
-0.0973102862236941
-0.03407205606970744
-0.06833227463637641
-0.032506150849089976
0.01982462385767915
-0.09726292529214521
-0.019332231795125138
-0.08971372287595049
-0.018962869986816944
-0.023839479269466328
-0.0315991230422051
0.013949354331638564
-0.030423341142418944
0.03791776613947073
0.018829040832354715
0.016497399892015593
0.0362974251217959
-0.027758598552721767
0.019337828791967413
-0.011989804085574731
0.027260901114541387
-0.006199065687702241
0.01676264648476392
0.02950962427611928
0.002877958696862631
0.0809664876960001
-0.013369095782941647
0.01196325499981738
0.07404482833378485
-0.04599843091455835
-0.002698620502315967
-0.0036735021846983555
-0.01231833445224333
-0.06405799361716763
0.08516343638874543
0.025451293163180375
-0.03462153409435093
0.009911896987479097
-0.045248118746952753
-0.05155974135523919
0.02114926680673099
-0.023886674890214503
0.08074967645789312
-0.015486687315674569
-0.06122634285721178
0.01975411313392952
-0.002869874082000686
0.0854534260026631
-0.08923661213829465
-0.10380440818872072
0.0009694686669077478
-0.011304231954096416
0.04323788185286226
0.06067519911761387
-0.0012385937600351536
0.11118225277798037
-0.021482009837129064
-0.005330804517237026
-0.0029643598399575594
-0.021488949603210673
-0.013944751235696159
0.05515310540090345
0.09933168989716656
-0.05224890639297876
-0.09234948578546298
0.06270462572760457
0.04990530663551864
0.057361278347693063
0.01168326285407662
0.03713078582744397
-0.03419411551732024
0.007349551480222789
-0.032577350014428526
-0.045752850233484556
-0.023834301449302823
0.017758019297564306
0.039453875264707804
-0.06614351625825629
0.09800213651662484
-0.005917717992584438
-0.068690073965779
-0.05184161728585467
-0.05084770306637614
-0.0179045429820856
-0.05159310864214559
-0.015778217295507786
0.009758103169574834
0.11826210433422338
-0.04462844365142603
-0.04273818063867114
0.019596011317392255
-0.11702615059970392
-0.08806704731329497
0.06805087006308908
-0.03349464999137855
0.04310625998646864
-0.01750263471165307
-0.09681009301683847
-0.025950308950695354
0.045156255198013154
-0.010286550494348087
0.1072446056933284
0.006410627445725845
0.05003561528945798
0.10021125083982658
0.061413305072756955
-0.07090183952465036
0.03480079097037417
0.01266936758620586
0.019898404034305903
-0.0043594445585565765
-0.027994695263583714
0.012792809758096442
0.04337383370553311
-0.12244260006042856
0.07599713469921053
0.00713608906260248
0.031250420750622544
-0.05362822627218477
0.042330739791243015
-0.034458059278435156
0.03383675986176453
-0.02645485438578924
-0.021910674113147236
0.05101230961701155
0.010882156951893032
0.09943565097925074
-0.014100913708709155
-0.016541152587896783
0.030124289131023482
-0.054730658441639754
-0.11859288035886213
0.0006146897677508035
0.03901430701115638
-0.08224428133953043
-0.034943145906014904
-0.055058190843521475
-0.017443645145164357
-0.04304227470595293
-0.044755568024842894
-0.03834039253689561
-0.03493538264312679
0.0026409728487194984
-0.023334788539205637
0.02161330466047957
0.016872294395603997
0.03639205609437081
-0.03902812644251942
0.007433812767321193
-0.014374765400915854
0.00603704256214077
-0.024175938665819945
0.012765205421518166
-0.09430226441100684
0.07003121232046541
0.03607972560671368
-0.05410821405233459
0.08161094949335837
-0.0014041826102117099
-0.011682686127042102
0.015790178323082157
-0.07993056575112792
0.05367543065432667
-0.024137822678015886
0.010332798390156443
0.07227614777415774
-0.05703703897438517
0.031171180120473863
-0.08570829247247762
-0.10297612097176875
-0.025263876970966274
0.09036870418301968
-0.07609135883835326
-0.022731814609508752
0.04081980852995469
-0.05292713130174212
-0.04951526212388358
0.06802854765845903
0.020808223599742263
-0.04812119845936541
0.06555646891757895
-0.008288565175249858
0.03408056552461831
0.10179960160550285
0.08833917719675274
0.08823690771212062
-0.05662026285322373
0.03225037146956885
-0.04305095741538377
-0.03199919416850216
0.03775380429494043
0.01815652760498999
0.04782853029740387
0.061635383479899664
0.05773078652741329
-0.05352675314292912
0.0705879264899878
-0.07466991891476848
0.08060788681872173
-0.006134032905352344
-0.03506634942786211
0.04689384460072934
-0.00981372702411089
0.004006836388792718
-0.04799860713360408
-0.03360082399799452
-0.012384313592761305
0.0780477202296365
0.042316511790881244
-0.01045753376742451
-0.09072181215270549
0.02062603501261758
-0.044119600390807
-0.022960276423494973
-0.00817562522106426
0.06988873526300592
-0.14193258690093596
-0.048226636995912585
-0.01511542002328173
0.0505237875347502
-0.024753855733407267
0.05278969866246211
0.09798175354321875
-0.01681550279188399
0.056436092262297594
0.03393405218726288
0.009257637111229096
-0.06393902074593237
0.002720947553627716
-0.06697596783027517
0.0524805181914187
-0.058556477392581595
0.01319503283445977
0.0836805999628125
0.002746669385701477
0.07365599303080705
-0.01618404123401818
0.06288489276613474
-0.058734683765583315
-0.10738188661158403
-0.09603299913249544
0.013543564505535875
0.16159364372437784
-0.02055873727578676
-0.03714657908841
-0.0525580895883849
-0.017958764999264135
-0.1158533455464794
0.024865164330125443
0.04076573852534064
0.016778260926616537
0.009751731357767733
0.057399244237186765
0.019208850680962123
0.068943399039707
-0.14213848130657117
-0.064449349658678
-0.05624877882099853
-0.03712481011408511
-0.025165511347074808
0.09499053158526692
0.012840166265997613
-0.12315899481951045
-0.02041750854396604
0.07019770418819908
0.012619283623376281
0.013897194452359532
0.01837721677662865
0.04717308705122405
-0.05692517387511206
0.007647778958404122
0.0379220309320269
-0.019244435524845394
0.0841395984523233
0.01110860951916603
-0.0592794953470065
0.021001170746898584
-0.011271169788768073
0.04200864950118018
0.05207985616761491
-0.07637333631607145
0.008003351466285879
0.001044001212238407
0.016970838708044687
0.05904903625167097
-0.03491587216379755
0.01991808505733734
0.01979543099144979
-0.042280834261374786
0.046060823492842275
-0.061475610298882294
0.0014774503360651954
-0.03473088939202079
0.03932506146831892
0.0311113163679232
0.03178882719360651
0.013330483779256407
0.01989729626010459
-0.07229241753692693
0.078506453158164
-0.014362569365868633
-0.026360101826218826
-0.03842080324017471
0.004705438122434022
0.06228571223324941
0.0437485876368545
-0.0788206085596767
0.012680585382014309
-0.026210708368514576
0.018896890950959526
-0.007724186392089856
0.007504904588759643
0.06700420988964897
0.005949599411585715
-0.059264588852254385
0.04757938774200276
0.05592777191697239
0.0632405211275152
0.050238152639147084
-0.1330064444769979
-0.016536146639822415
-0.08804280686539556
-0.012029332351229162
-0.03924768946656339
-0.03908825815350568
0.05956941783315715
-0.02341142597239881
-0.026562452981861412
0.06184707610140471
0.07454853752551946
-0.023463294207180026
-0.03140297439289788
0.062474211572240756
0.0078924292724747
0.01469915253781169
-0.020355188002777306
0.03937900502005396
0.07202113524851386
0.05179889008044304
-0.03692390084164204
0.02599062109146542
-0.019321098890181018
0.026711096628323303
0.009808818237808962
-0.07021037291589041
-0.05931074577668082
-0.02723796644491793
-0.001579682349740193
-0.07442649790605105
0.018511458020984327
-0.022038368891862274
0.09330165298007993
0.06110310928425506
-0.04036196166260035
0.02139249914283555
0.07095842100763838
-0.040623736650565276
0.015102877357233467
-0.037216521147342516
0.016425290153455605
0.028436200800033427
0.04388068601900927
0.0023856722229025724
0.032087592081635814
-0.05033045446055071
-0.026820503902357223
0.0062007032311715265
0.07002429344266309
-0.010026631976594137
-0.07852146638261369
0.02125195715243655
0.015627506048951002
-0.11803152810612322
-0.00015719633236076198
-0.03825381906532184
0.04800390469427694
0.00125828736670231
-0.004410303638249922
-0.10598630839188267
-0.09775544759087734
-0.056926097062551785
0.06325394951575664
-0.002774783998889284
0.03455748715704686
0.011882921775937253
-0.008882448501129618
-0.009285849718928632
-0.03027546761980601
0.006101532983593265
0.003204544998579292
0.03827655611722562
-0.046533432768996394
0.08373448731910553
-0.061956362756686374
0.0320999546463192
0.08239028224362963
0.07869991400613614
-0.03634530412182599
0.08247884851330552
0.02147535497637543
0.02634956036646449
0.056606385886453794
0.0019328137956633466
-0.011119090775707982
0.024076272019136445
-0.10040467668339234
0.054241347001953724
0.053859133664946955
-0.02028772739025973
-0.07853144575795107
-0.04468143227057072
-0.015161254001536454
0.05048344382996488
-0.047669650172617525
0.08435252173439815
-0.004589199045567023
-0.06883046050231058
-0.13156437976545468
0.017600262210620846
0.00034774384691092623
-0.11649587781023611
0.03404565440938347
0.05826128417961986
0.06537273173193653
-0.08283532920261727
-0.014129608772673987
-0.015550571802491734
0.022007423500524256
-0.00747962618434337
-0.04783324347983862
-0.037737752988561586
-0.008756272547309516
0.039568679495734935
-0.017697326845804287
-0.007935962149206603
-0.029240484874597815
0.004878927920342823
0.049510977888929934
0.005393696154299088
-0.009894215511610174
0.10335034783369663
0.022468423778649445
0.04064783509619548
-0.018369684819659227
0.01292656777434197
-0.04187615043945318
-0.03637712317140004
0.001897791803571185
0.00880846184687638
-0.03761146354364057
0.031402745171018306
0.04966015277538515
-0.04747579281577103
0.037198197432948936
0.011856976316439415
0.02765215306167383
-0.03157416046545764
0.10229412284273288
-0.0746784243877822
-0.020045415113073988
0.03356725538203838
0.03561445759388626
0.026878619400437467
0.0010542765764936042
-0.04421207175038335
-0.00038756103514463354
-0.03316819466987256
0.049098078156466676
-0.04969047069899817
0.06119344605525806
0.006569156263209517
0.057164054187755074
0.014638556043666333
0.023037069462625823
0.009068324044775066
-0.055359072511966596
-0.033388205055298645
-0.012004724110627687
-0.03415225643863327
0.04603366605863325
-0.011402219250960747
0.012258041783565403
-0.00816971787437442
-0.10874420493422293
-0.07663113424473365
-0.038863728224381965
0.0843760773479133
-0.05205228555407497
-0.04661033796749378
-0.06078007609298836
0.009692238596001853
0.017828083518726324
-0.005943893616187542
-0.007695334604356742
-0.060315959982199366
0.08952413235804667
0.009219887360994754
0.07680146126549622
-0.0007641938509800725
-0.03263296543536329
0.046005335781169825
-0.008558471484830738
0.04751257044892536
-0.08382865786839007
0.0701504947808632
0.07105075655335022
0.04943643143729698
-0.04717271363442912
-0.05205412667158892
-0.04443203702139043
0.02732051438794792
-0.01150211046278997
-0.023241844026618406
-0.07477705635726235
-0.018751023274933654
0.008979975495617071
-0.06339965456489453
0.004013679584751008
0.05096414378400049
-0.10222888012739113
-0.05862117839101751
0.05214849565245163
-0.0012075710371749267
-0.0303420058727434
0.05749397458300311
0.04697831749384526
0.016744527347378496
0.05492211471799548
-0.019921594934634895
-0.02409354310817793
-0.005177723114049976
-0.0044211547571524085
-0.010868302885912166
-0.02645044715822708
0.018001709871151073
0.04307020003965783
0.023771064306366513
0.018833543552578443
0.032433346959776226
0.04116163541604911
-0.015484312238794389
-0.005081415169393305
-0.07656840996024303
-0.01857131387643831
0.007644499981073431
-0.06327200566954065
-0.10555839927396758
0.018548443158373052
-0.025697064859093913
0.04366449233723147
-0.04523925186864473
0.019463118809459418
-0.022732160231895036
0.038620956837300255
-0.025502478928439033
0.07665261685533
0.013273815774058588
-0.03513593439225408
0.02176585310544913
0.07703412215447102
0.0625742069381809
-0.07232942293147757
-0.06322061688320318
0.035267493661362434
-0.005496742851378638
-0.015652585876051207
0.012163582389505974
-0.033563999534588905
0.038141946647284417
0.051265516649149315
0.044477438084058754
-0.07791926757703378
0.03828008531305199
-0.04720690698677011
-0.01602097617861892
-0.0010997504450142325
0.019153808920431763
0.01665538161215151
0.02513318672565588
-0.09406832265034584
0.137434557666414
0.021007124489870053
0.01845527232593705
0.007987455140776345
0.04012480105104414
-0.014768560362158914
-0.047094455764123445
-0.09754586451639978
-0.03268921875362319
0.04125136926674448
0.03850541168884622
0.016370419105217
-0.043514009485858735
-0.014272990296650518
0.00609784495984762
0.034688219187759536
0.03800710867379591
-0.013078786285619242
0.03842296336390721
0.040598902677728484
-0.01975167428700475
0.012317887383218838
-0.05873355264979207
-0.004010768240970824
0.0030762783468084457
0.0324142324600731
-0.014304167964089693
0.04736005935867246
0.01924270445534358
0.04117382764710852
-0.01959180951173528
0.06078287263512357
0.041643815378130555
0.003232165322834773
-0.029095570532492256
-0.020549611580518243
0.06991958537636256
0.06429295436856734
0.030926575229628953
-0.04643962846107337
-0.05040504241004825
0.03173391238333746
-0.029657774456544567
0.1676932621289033
-0.017917244916126788
0.044184838100744014
0.05830766220305281
0.030917727215093588
-0.028121570015414436
-0.14172388301537384
-0.0447354000158165
-0.09394275192189468
0.04242269725329562
-0.025330239757799845
-0.008298969745809596
-0.05271735834883337
0.024437712077270756
0.014895018931583195
-0.008069029060573598
0.09514073405905722
0.07773583781098074
-0.051194122996355375
0.010793267577548251
0.029488661313147025
-0.051601302641000615
-0.04756757872024465
-0.06843597176787303
0.1011538972110031
-0.05990972770204762
0.009429211854368895
0.012542203769687729
-0.06889132681884773
-0.05600707519054416
0.029856705862717058
-0.011335958004110134
0.004134330086297567
-0.09150163294249666
-0.0026099403897096407
-0.013859170242210044
0.02848831549584217
0.0038384278613787385
0.04228013747093687
0.019786192532931467
0.12251114216582376
0.016132964042922002
0.030841751091033803
0.06226950673438984
-0.013566373173479657
-0.08482394512911083
-0.040651541889808546
-0.10508984567632502
-0.043060827238112456
0.04905266515647757
0.021149480843575534
-0.08926304401018068
0.04488309170573759
0.07638514171273529
0.07311620727038662
-0.006667868389017119
0.009323695063761767
-0.08350899993431798
-0.012698367620911555
0.12940265512017823
-0.020747286364587062
0.02673332041533494
-0.0624355440406439
-0.06842818444699512
0.005560898697764072
0.06292116903733758
-0.028654437697032374
-0.057113492974382646
-0.016186104351369277
0.014082575565315981
0.03265306190635343
-0.08312555654410989
0.008284745674564234
0.03403169673655347
-0.03947526921521399
0.15667603598593752
-0.1040234484809573
-0.03230309265305825
-0.01947401835769914
0.0175147429095835
0.029987242950426322
0.09588593719505327
0.029473936255331148
0.032310983573475095
-0.062423412489510006
0.023968841822734368
-0.04481207209209083
-0.05692917890495831
-0.008783163752004556
-0.13466927139793883
-0.036802232681037675
-0.018687200244798155
-0.012672785049124958
-0.053444474018320746
0.010080014518751295
0.056165010099556906
0.09257168982228035
0.09370405453256753
-0.0042667936167034995
0.021725802229430255
-0.07145892262799251
-0.05590331045903722
0.021148823629463846
-0.001803231070870666
-0.033371911598844166
-0.03795825423875517
-0.012034806439547399
-0.038792241682743096
0.04904362322459306
-0.017777620461799124
0.0339332333197157
-0.033163912000842746
-0.009754565020412451
0.025889243315767262
-0.014125944678323218
0.019952595794495268
-0.07407270119114778
-0.05603042406441274
0.045529812039784186
-0.015087761070933266
-0.12800409639390786
-0.010788193674566529
-0.011145427643258779
-0.0009625190342630453
-0.023280657763971056
0.020093378581573087
0.04967231056134715
0.12963065426505718
0.05542925652985309
-0.08123145094902948
0.018494542875500397
0.05914912243892005
0.023498860052989817
-0.013167015800679584
0.04600342694342101
0.0027353348053660628
0.001663683429913909
-0.018461171185503854
-0.02096774289497777
0.03386744297694646
-0.010761296588444824
-0.046901438215063686
0.01690967451155566
0.015634440043331182
0.009604878797787667
-0.05441783246418695
0.03427292066889541
-0.03253599857313737
0.001672509534135257
0.1532103284004037
-1.8605980583770323e-05
0.04858987985859447
0.0068594202838909235
0.007080640450362147
0.045292738441701175
-0.02078699351815107
0.0161820420902451
-0.022703158206041872
0.024888540433782417
-0.06416942031902623
0.0352079226963441
0.0052364155350325126
0.0920950279710464
0.014762390603798442
0.04816635806834472
0.042589196759483854
0.001393916504350658
0.029895809933866768
-0.05533226649607313
-0.02288618240077129
0.01722737483698198
0.04800294786309456
0.05586125016828101
0.0046948251495026495
-0.020105510204683614
-0.02454714717951844
0.043571422854479555
-0.001303216309398455
-0.029789228998545306
0.02236174803846916
-0.003625141001714752
-0.04058965027051791
-0.1246865251198848
-0.024448373185727994
-0.024279886592393062
-0.022867185637523244
-0.007811557206221332
-0.05210619269548769
0.01677846799024912
-0.1097743183267298
-0.015911455414495825
0.07483708564135862
-0.003917402991820084
0.0536178338564231
-0.06539791847448531
-0.04511516226772887
0.0063640788003619135
-0.08499679613959708
-0.030455450020070773
0.08228558353338228
-0.01024211899424967
-0.02978298139293148
-0.028961108735822395
0.01200588429005944
0.028006008329300103
-0.0014740756042990067
-0.10930625323078784
0.029532661533107567
-0.0016574622049936934
0.008148210582629807
0.08925689308058038
0.04091016516590899
0.013467313902653542
-0.0008104032454657393
-0.005487044134316666
-0.055181360362909104
-0.09782474940269735
-0.060393889697375976
0.03663626161675054
0.06381614382215481
-0.057399626957544775
0.02665095020800841
0.009507789955215916
0.0021268450561066745
-0.006761067286025491
-0.006980622449661614
0.014507018673892756
-0.012496055760426497
0.03411063537000599
-0.04867218152304746
-0.05065542039739874
0.07445965239054261
-0.02015703337614053
0.01970227169370358
0.01250778409583922
0.09149771161079555
-0.03273607417977432
0.0010395709645035054
-0.06144965804337289
0.03018345105332715
-0.021792058156122195
-0.052482086708372414
-0.022509817729589196
-0.0005177981238591492
-0.007187412389777529
0.03951590193506851
-0.018709275648593243
-0.05014500148387584
0.046702464265988335
-0.119212549436181
0.07902476005096115
-0.024595038752216063
0.03663434495729057
-0.06932397717243775
-0.015795364801902974
0.04324311968482443
0.005087138228423884
0.026346630799494043
-0.010632474875824202
0.03418399278031263
-0.04458460799751397
-0.01071357319690645
-0.0827673677131741
-0.027888951575280055
-0.08155670561278987
-0.033579382480055917
-0.02287985642000559
-0.06245377887119421
0.010282672142033086
-0.06945872381025862
0.009943976626017013
-0.003623707410636051
0.0014537398989033605
0.04388670666717816
0.05568029056467162
0.044142037233400586
0.010640253306647095
0.058176206347406105
-0.06980915519327387
-0.004909833409049012
-0.04617313632716976
-0.048521377212338915
0.09036228953891468
0.04357565298245797
0.06834711751126833
-0.02509047179678613
0.0020912558118136152
-0.04041775440329156
0.057706785649450754
-0.08705873728739208
0.020258292619899382
0.012453750209503006
-0.08925864003261062
-0.051927404655982036
0.05962024900878095
0.013440278892384241
-0.06312034873590602
-0.010140935405999392
0.08189773082369742
0.019195622442674976
0.007905590529646133
-0.07733398012675279
-0.05022233411960611
-0.055088866170703736
-0.051896954254300506
-0.03262620205049078
-0.001629567129274515
-0.022558337932850316
0.06889511590736393
0.005484477125273219
0.11061573365156575
-0.027626009866855775
-0.06541964669650259
0.10247138485898188
0.04204221817058234
0.02397422694035682
0.010284966666434726
0.08035391900537685
-0.03787580627040707
0.012404417688291623
-0.025939677478412998
0.02772177510691455
0.03886681051458667
0.039907718506057885
-0.017340978363801832
-0.05589598844376046
-0.0018970905632727957
-0.005758450116645203
0.059358723481186065
-0.10838963646922486
-0.020493331355549285
0.07204172007044764
0.0056782077575187875
0.0021476593618685006
0.10592591532963722
0.007187579891821351
0.05391628379974783
0.10802353306116574
0.06533123365728487
-0.015143638996581789
-0.024729351786636385
-0.018979052640721278
0.019378875847691664
-0.0711193662962024
0.022114517408685832
-0.04991278651523493
-0.04664161349458429
-0.020526589557918452
0.04428431369955291
0.004342090071472671
-0.054035817633784705
0.018284961578049794
0.03046276088969891
-0.015297936147598704
-0.02161945827505889
-0.026253333577582305
0.03173690437497667
-0.03416514061355606
-0.09103984694815938
0.01753966671199557
0.06700328557293886
-0.02805581070294044
0.03689290555246646
0.03145663791751706
0.030524299940679803
-0.07621334409071413
-0.00674755768312914
0.032309148463195526
0.11186659303712626
-0.0029979274455171467
0.05184884524132367
0.0127050097282337
0.07566584354797817
0.00385906028633051
0.031579011769830315
-0.000242435022302482
0.08166127254876424
-0.04004584740389957
-0.015075160144524032
0.040495552582479284
-0.050933478863646846
-0.02840948103729868
0.011811744068563872
0.12789841268256133
0.04024754317018633
-0.06051076139229803
-0.0025852241122682742
0.0360859941914774
0.08312690072524953
0.03397999043115664
-0.0026875205197161604
0.012840467332866963
-0.0639036714356772
0.01579106964267748
-0.04337764248575859
0.037111674882816116
-0.05712608831907851
-0.02745017215937393
0.06965539118606143
-0.01969550465565686
0.026827397095130264
0.08682356379890435
-0.11996784883972136
-0.0005225136384586071
0.02940019856286534
-0.12043375068661377
0.017487562907722513
-0.012879757370594592
0.003082109141716616
-0.051733325036408664
0.01217698965600395
0.07374033597594279
-0.09245511501158105
-0.017633041245861784
0.08191955889540677
-0.049651533553902276
-0.13016392043197675
-0.0813614808266677
-0.08956476207340458
0.06865681857399615
-0.0013053336285520126
0.045001377254355976
-0.06869701707386691
-0.011101491956396146
0.02472144059821491
0.008846157495002437
-0.02513110553934003
-0.0005442247597939749
0.03949264399943484
-0.05694624364959036
0.028986264107273913
0.02493923833058565
-0.049093149997088706
0.04830416778898269
-0.10552451944482101
0.042881606921874114
0.0007192695439472828
-0.13209014058552637
0.01740058514544889
0.014709411681631914
-0.05479084129308499
0.022517640083158687
-0.07492181286203496
-0.03154904597990207
-0.0436042532892855
-0.0014877808378242847
0.07802388842787183
0.010798154333798845
-0.03928317200707427
-0.03812865171535031
0.0975181513748652
-0.015020123503287203
-0.05600863624629569
0.014948768132266258
0.0016358697128888073
-0.019037196696605477
0.02260291010129019
0.03083073750670368
0.010698269326009147
0.047088941967008184
-0.04279249075590968
-0.06808175777733023
0.0059957831148329255
-0.00960565488831253
-0.03562715897697672
-0.047944429407423224
0.059035874235864844
-0.017303128579059066
0.03268552983063401
-0.02669336467678026
0.0039790430913008296
-0.1297565386800566
-0.07380153684776256
-0.04496423710613606
-0.06486377518066609
-0.014086757191577962
0.07110540886943613
-0.014938608289641967
0.011925763717216318
0.019141282964396225
0.02517040454201518
-0.06350548686266841
-0.027530848771954396
0.0101558530565956
-0.0312027044446783
0.025685700778721864
0.018024252170766912
0.003835048059107974
-0.04446749269104905
0.09853120262213087
-0.04862132380946247
-0.05514640461709459
-0.05165533236439984
-0.08232740867484958
0.1035296910945262
-0.058909332313624704
-0.0051668539699658645
0.00863582067054794
-0.04864341414920922
-0.07514418283421673
-0.025248631001782075
-0.04649160891962075
-0.010544844290164735
0.02097797920167466
-0.01415579174324171
0.0009375980343845848
0.09630691477094255
-0.005710152900572163
0.04446689843899318
0.013221712001843907
-0.0830227345140281
-0.025988409066559238
0.0580628463462041
-0.04992125353747444
0.024709698411645043
-0.05731412621048869
-0.0020430787310531805
0.04053526520134664
-0.004247528763735291
-0.03393318766261444
0.13488875732281014
0.02522803427083581
-0.06707408546633727
-0.002026934194835385
0.047170326524659925
0.008233371888908733
0.044569603829901605
-0.0756142291526499
0.04640593529797171
0.022312555115432172
0.007961456913698482
0.04510797086375765
-0.028910523760977563
-0.006667657022774006
0.05689576032493389
-0.049785657389300055
-0.004029617039369669
-0.05387005481685975
-0.004444716485721666
-0.058385529487379045
0.022362256661572225
-0.029495866077589413
-0.04916788033504162
-0.04561665833399456
0.04333533184875826
0.025088067579097973
-0.03331035904234263
-0.12522469087272026
0.047037363197036094
0.021245929510553263
-0.18241571627581682
0.13092666227335623
0.016343275810493458
0.06075377636343144
-0.020668308184578366
0.047636533485002304
0.008839118070999805
-0.04625198974189142
0.00961592308371892
-0.00429521205309153
-0.0008610314202802496
0.02404665970620347
0.016959354324521454
-0.00769118456073631
0.04235677293627967
-0.00859466967121216
-0.024955354163262996
0.07521181991602853
0.04587356693797398
-0.047358853217415
-0.0024960200420655063
0.061693131010064996
-0.030522664802170595
-0.05732788655837869
-0.01699083729901491
0.030069142932186595
0.0025983674847421217
-0.07470888911241663
0.06153708850173531
-0.08913044272337596
-0.013872041689217981
0.020294540448459412
-0.03819196879069806
-0.0713021073850566
0.03617522412587619
0.02350585495868604
-0.10810084424735049
-0.025269995552573133
0.04026113960961041
-0.06881707821482426
-0.014623034046053264
-0.0448312389400092
-0.061880699529363994
0.06715202299203361
-0.012840607911168228
0.02495986711486706
-0.05731574943750028
0.04884051371416716
-0.03509875789986085
0.08874277226665432
0.0260932037943383
-0.044939509585046576
0.00939806305349242
0.03154368831204013
-0.048368576072164486
0.025726579881679864
-0.10263780763397884
0.029928646854316645
-0.03914019986810555
-0.006811371070181832
-0.0036041145534245283
-0.04405198732506557
0.017346475737656686
-0.0554452587398998
-0.036326754055085654
-0.04403662160094521
0.08485298691042968
0.027622857820075924
-0.07896204907193648
0.034418368334447336
0.010468859533900544
0.08279964020907564
-0.04758631510094867
0.10254401925737511
-0.0009088561850845934
0.07212591048689827
-0.12112755724620601
0.02264836657242485
-0.10326852155796806
-3.280173890973937e-05
-0.024116065708112283
-0.07392278458564362
-0.04415998840037511
0.033502026823243485
0.03674064372041172
0.014735716294011865
0.04984854543207416
-0.04195891446704049
-0.032281996147150785
0.01670903820429534
-0.036170866854631896
0.003793761327277656
0.04598640462288361
0.09351101875458262
-0.09943176314634716
-0.04457739925164341
-0.05730934280164015
0.009266016431650599
-0.018159357755291684
-0.008956685633205126
0.09629760197874979
-0.16227983916757305
0.05737815735926344
0.021724876756359476
-0.0156337120113283
-0.014972369145261498
0.08975843770540659
-0.03811077611591198
0.08635569822180769
0.0029891412237080172
-0.00015928096627450006
-0.011251942218668026
0.042074634892321036
0.03026695838745493
0.0989436429593896
0.03377922939247958
0.0746619959399221
-0.0055220966842235
-0.08603544998819299
0.07748545171976004
0.014789944936294519
-0.04578960721441309
-0.023749424040865785
-0.03807426671510007
0.06546076781955884
-0.175958049518654
-0.031375895849868794
0.05302939866366146
-0.04774943509501831
-0.06556342054024392
-0.042664069209217594
0.0010104099011450758
0.09850864759474569
0.02122924261488834
0.008795274320487257
-0.060929968715918804
0.044021926029427665
0.013018784706926993
0.047566514038772593
-0.00358847189980241
0.01184854998424593
0.021088513981094438
-0.020600904945205823
-0.03459765642606427
0.05600128197758415
-0.020954029823765156
-0.007669423232437798
0.013670542061347716
0.06668542292345467
0.022176463803911875
-0.0003869762198686837
0.03507138521190519
0.05333443171593327
0.04837656382785386
0.011049324612265552
-0.06291097008163217
0.026871212664810386
0.06694626114615139
0.00910832709315982
-0.07302303531773871
0.007629292008207696
-0.0250886656663435
-0.05835197567720646
0.029479443909630712
-0.037643135067609954
-0.045135871543503014
-0.04711060565232188
0.03077157729848357
-0.047951706059512135
-0.028737835544840707
0.026496900451099925
0.07555563428687807
0.015424037674967958
-0.05431742108015978
0.050841498297830225
0.05841893430456169
0.07443498142630035
0.010651015204248786
0.010380463514613365
-0.03871457308445062
0.04301505782609928
0.023356041686279156
-0.00801266879467386
0.06770968179087869
0.04568102940952826
-0.12315672948806126
-0.04563004020154821
-0.049962430354051374
-0.036877035342479283
0.014357864226051991
-0.03449951354479353
0.011687079572576097
-0.018817198462211988
0.008333859935939316
-0.0207491065985576
0.00742204305709407
-0.06127845928924046
-0.004697039042817722
0.06698508150452294
-0.006496700274771718
0.028391357061171435
0.032620369756392466
-0.0365981633785254
-0.06705210617161414
0.0011591265645031165
-0.06566042397288539
0.05208495177988286
0.007211463235221502
0.07251941693741372
0.0383213433332729
-0.03034438606470678
-0.027078045828043032
0.003940162679450428
-0.012543541412496785
-0.005281382736870787
-0.019552196927937037
0.015542149636523436
-0.08919506935744236
0.045098136932593964
0.03604084392998026
0.07042460212315894
0.02329944038736013
0.004523771322952233
-0.05778118067108784
0.03226145264351884
0.046666199242555696
-0.00314939030459497
0.00536318841414315
-0.06050408882277269
0.026083846899787384
-0.04554814597726327
0.04096138332122297
0.0006211403489000559
0.008873770919800246
-0.006210180137119109
0.06041214879354683
0.015517461043517446
0.087553783831685
0.043329570122791025
-0.036066102579182545
0.008694384284498233
0.05749037146653667
0.04797383566180697
0.02834155905298199
-0.028700415451825608
-0.010964243424955642
0.025285933624874683
0.027810806077978218
0.10907006561963388
0.02625201933664611
-0.06345213342380909
0.07433824470830579
-0.012872737431262172
0.08686478025157145
0.04486144751426278
0.0653422409389669
-0.00702450606233518
0.02347892969007771
-0.03078355218062102
0.0274577749336921
0.10486666633803134
-0.0028661577614641194
0.004372988274954442
0.06503008426497375
-0.012728242506680256
-0.03674010180695165
-0.04275954512998425
0.029956351498785685
0.08219501130214314
0.07863209713788376
-0.000904689641912141
-0.03684406299420153
0.004810467012476697
-0.009338310209143743
-0.011220316035607032
-0.07730959203718181
0.0022818626541592684
0.030426144760050306
0.05414845362066231
-0.024857792349591203
0.03618740338009875
-0.012737485972696043
-0.014605676460532312
0.04534332820415045
0.009123398395460381
-0.019686684947496695
0.007388323975762116
0.12870606791140238
-0.03598387632423897
0.020217312784865396
-0.003114346584495566
-0.0619793371522608
-0.07034906723668288
0.010542440297952576
0.05426760014410482
-0.0474862911415622
-0.03161398265207927
0.06258862634506158
0.04452567165758369
-0.005077827027858608
0.001073861855799301
-0.03909620305473351
0.0857818901374032
0.02951558646982845
0.06453935912544957
-0.038894168634375365
0.09636177850574384
-0.016198020385858294
-0.06357424633420791
0.052567179589027534
0.10790692423108986
-0.043542175565651285
-0.09640236613927874
0.03136393040528389
6.130515243115868e-05
-0.056056529695174016
0.004093752896789921
-0.05405182663772705
0.01615157871042963
0.06208093012213323
0.04752595615883157
-0.03502394777041304
-0.12575029189941492
0.03046732649901667
-0.04368153116861854
-0.049166648711092845
-0.05921759294586207
-2.37887571482155e-06
0.027666305785904496
-0.03950853993774512
0.014145469044091337
-0.09554459351506155
0.06392501650689203
-0.0269474562466526
-0.08241191578232966
-0.1381277863670866
-0.08562973666864292
0.024751006441527515
-0.037557983040906205
0.02445647877958977
0.049128181869611404
-0.07211777242138942
-0.0005796309482652608
-0.02225047760231755
0.031096370781648945
0.050035828432937475
0.01660517901857789
-0.006224809541434364
-0.052118023877733594
0.029407282862498167
-0.005484593790284941
-0.06911335568723657
-0.05851916635924556
-0.02374999107245636
0.010720286548619283
-0.056078018991831506
0.0010990191685887613
-0.07284753670527291
-0.011424079293877839
-0.08306081960872849
0.07135970395536517
-0.014216022588361257
-0.04838731618080596
-0.0507031939650315
0.035702099170461216
-0.00648453932219303
0.013713990178080407
0.036137242002971734
-0.0120070435338827
0.06808958622348972
0.08337662406448998
-0.0010621834369289476
-0.05229297351150597
-0.05172535790053638
-0.07722515272650715
0.015137124010781716
0.01047884444870186
-0.0443896440866711
0.07033404425145671
-0.003478515771731907
0.0701788873463049
-0.0007902695774405554
0.08380390825557614
0.07121463135509705
-0.019142734644034345
-0.059319980367806516
-0.008962894741902988
-0.0016146529752747091
0.043566595167446806
-0.11201269094643566
-0.022820639548329025
0.027939333595545374
0.016763433380217217
-0.08171900767278294
-0.07862409722491177
-0.0496779139075014
0.026707509930531424
0.053731777539381735
0.030810460685292255
0.021273114863642414
0.05983163578871286
-0.014555022242949854
0.07770841846594383
-0.054408528945211324
0.07809085054177492
-0.03551648635583528
-0.09363885283916148
0.019065953646236766
0.0696143930021863
-0.044462051569186006
-0.035714747303088795
-0.08355235047796743
-0.026961997343771516
0.01602263230490486
0.06938514162721456
-0.0596869316392163
-0.01841272174167345
0.023560111794425628
0.046150665604675824
-0.0015168572771445373
-0.04107934388048487
0.024252693432529608
-0.016012414486126426
0.0954427361568607
-0.04699393562063684
0.05400778849022313
0.031543164579510986
-0.08398098338584861
-0.0005896874847635857
-0.010972671177707677
-0.03289274011915633
-0.14304861675115302
-0.0004983710854715613
-0.05055094632052527
-0.1383902965728589
0.026146023373343975
0.012733506734812685
-0.012145475915208395
0.08617338487788448
-0.06681162291914207
0.09457345499213411
-0.12000357681513005
0.0651061238049721
-0.01981888975312076
-0.002667059650307482
-0.051449136735822645
-0.012871480664313829
-0.018888689729552724
0.05972384757837188
-0.030243412718684186
0.030719290555241554
-0.01530095703745195
-0.04609528989999178
0.04062293910755808
-0.04599487124207186
-0.059351198480102785
-0.0363705226291863
0.006563778043570604
0.006393627987716714
0.06358612641412086
0.031782159275151205
0.061451956464638545
-0.03579893279178663
-0.027557200111147078
0.005609578400515226
-0.032830533576650466
0.05336247368580927
-0.02170408955192556
-0.0016155412450825474
-0.04279799640190008
-0.06287503497195611
0.023613058026532515
-0.06830924194937875
0.00790918048847112
0.05955955573814174
-0.04798126096090261
0.015703383291907815
0.06552698523991798
0.041818677053600206
0.008790883706055097
0.05836752371293225
0.012890135611370378
-0.011496677661242528
0.030614910644818843
0.04686602112536341
0.03439469203470729
0.0005778464536370112
0.07578157557841642
0.13863877532303098
0.03776216314683138
0.044464776693561164
-0.09742142668160289
0.021132633801169358
0.0876683835749845
0.06491191664160031
-0.06603358200323996
0.011392966373894121
0.14056192606270515
0.029873781268335668
0.0023012882646615183
-0.030621252339586486
0.04278053721281475
0.059018978312637214
0.009070762213412797
0.07452425525861212
-0.06303620239655365
0.025140090314140176
-0.08261540064968473
0.024034286258361837
-0.037823762270007937
-0.07485141891462602
0.012048848123928261
-0.026631593702781925
-0.015419855002355468
0.018028500824469426
0.023735774771928047
0.06594350272287715
0.05939041888226925
0.007964143453332698
-0.026276481269309877
0.037356106901013764
-0.03966400933533344
-0.07925776721835869
0.042731199307849584
0.02909702421867983
0.14163852547988337
-0.11409161553026755
0.04809805827265489
0.06038654145377453
0.004602505164313411
0.05270678431165332
0.021321591093714218
0.06370272523759737
0.1104267966642095
-0.05843013619514666
0.011671677650213262
-0.09206226674066582
-0.024025829392444922
-0.08509000352608109
-0.10938741655594295
-0.07744053737168291
0.059857947782755286
0.044435620795032445
-0.0651352169259506
0.007350732602944647
0.03341294523565813
0.006218989114574291
-0.030438396948567818
0.013339003599071772
-0.01915712838892356
0.0197499260871326
-0.12084056921893803
0.03406158970656269
-0.08105970297478678
0.02008632003004654
0.07553619126153756
0.08673655118693534
0.039004016944754714
0.0427367530221564
-0.011112949381533363
-0.010607165475245407
-0.06148557245843994
0.06587995089847712
0.050601289784182005
0.07187277110963869
0.10930049580434825
0.0034189541038765195
0.004791312384156609
0.0018553308592440085
0.015285561231217245
-0.015416510277589465
-0.010925925454676752
-0.03788488374169843
-0.011050386252936409
0.0020674815288384916
0.10622240864685158
-0.021493713523061158
-0.0513209691957106
0.054499990949582605
0.0648507701152051
-0.08999605836006164
0.05038451688623027
-0.019232244740073325
0.058258277555867384
-0.06997457989520707
0.007271051607055397
0.006702584669329781
-0.06932648323241862
-0.04260781268936539
0.10938458584568996
-0.04031747608053055
-0.03246397937643507
0.025690046090077006
0.05637690894292739
0.02390574306404694
0.048010173012931416
-0.05771931954709733
-0.0323674462915178
0.11104909316115667
-0.03884466442079443
-0.030361657064932046
-0.016142972489576045
0.016699086501663893
0.009599185873018092
-0.04114809675134043
-0.03666613675625322
-0.015545483336298066
-0.018195851661054755
0.01737030787742113
-0.01910383657691027
0.007854126447604826
-0.027957097310682806
0.07146155871989557
0.05015447017419722
0.014065372901510638
0.012272693726528939
0.026357146845352102
0.04047337816964788
0.07798824020097563
-0.029155079299054157
0.025332665821482393
0.016045403186852852
-0.036858235665304856
0.04059529554511375
-0.014139921006103872
0.020325014842314547
-0.05823385659206319
0.05483925109594137
0.01943036119940789
-0.008029087110430707
-0.003549621005476432
-0.03760349485153908
0.016682598410677926
0.061891124388171015
-0.009869656150226202
0.0040009993800711125
0.035617885776418376
-0.0014652696567494811
0.013738234235877464
-0.10267425830324775
-0.088270490111242
-0.0014429805879011552
0.07029270903358885
0.00817340990061776
0.03308492062451283
-0.017579982315376722
0.14928623072669372
0.03426385841620488
0.04262838725513268
0.00852081717679153
-0.06811558616930992
-0.06901503662559459
0.01623173806715299
0.007766935752902388
0.0942253776787272
0.020829459952415728
0.03420759426981372
-0.06271238909580508
0.0340354662407457
0.0162552816187651
0.012337171831562842
0.01520587509881728
0.01009832261573177
0.03418620380272714
-0.06384353427109328
0.0022503403023047415
-0.026841488141709193
0.04871425385346493
-0.08561011909917735
0.020005254896211504
0.005492684012287644
0.05287656316246359
0.10403018229415209
0.011101098836425525
-0.04145887244267492
-0.03797818393613304
0.03005705622672471
0.04890831384444387
0.025427826429530027
-0.04393635620071669
-0.10349993362467039
0.03238620373003728
-0.016657406963875
0.02215636951987868
0.07531986157862987
0.08864974102092035
-0.03299055906291948
0.046520807088930374
-0.047893819235465124
-0.028578957594707445
0.05838881863768659
-0.03040403350376815
0.0847620262648885
0.014814800161591759
0.031153822920727315
-0.08353317192394828
0.04911380028939946
-0.033125970059907056
-0.007218743422004618
0.059692794953917744
-0.02481044611406904
-0.014282254369250211
0.030086663029846458
-0.0053125503057969425
-0.05068285601233682
0.0909321217238145
0.009420110817315235
-0.04273696868180121
0.1012998353791385
-0.01730513620814388
-0.04574011810277369
0.06871129996311509
-0.08173748656107084
0.04615429913661236
-0.029136881541884048
-0.05858048840490813
0.08307649034994237
-0.013893191553884347
0.12048794524327275
0.08425525540153911
-0.014868956168243571
-0.005645896251297463
-0.08529608031100284
0.00647643044338832
-0.007629537361591352
-0.08043582008757154
0.06919648030645986
-0.004523305375642377
0.04390843079252378
-0.04170908932561025
-0.00016214237788873627
0.03687165651688382
-0.04834605342513355
-0.024423412048337808
-0.11070792873439077
-0.023410034000734176
0.0644154677997837
-0.015484553332898022
0.010965658371280138
0.007162371809313814
0.01988952447299413
0.05771933926585513
0.033911573678537095
-0.020730187431855094
-0.025458722566109718
-0.00712144578794013
-0.021800314425339244
-0.00834100227596241
-0.018996229400247932
-0.10903984580749553
-0.04213777363035551
0.06359974711848515
-0.04286417445322978
-0.0757117984734337
-0.07757448466102376
-0.018096058445403088
0.0711523463973436
0.016227655236556532
-0.06393955002825018
-0.06561853122874767
-0.008196745881076873
0.027514102846618173
-0.019896915905574342
0.03442311313619412
-0.04121049293109558
-0.007185531715271137
-0.10246695595395536
-0.035823319907589114
-0.023592191479026768
0.011390458300067999
0.022742455956628875
-0.001702319226522676
-0.021862363919719564
0.14543182580777808
0.0030719177012502753
-0.0864280089860904
-0.013328336599441158
0.02364109319128844
0.045318750955869014
0.025639281071939593
-0.060624298606666696
0.01729400368273721
0.00594436484662844
-0.0018087195713563672
0.03836811428612041
-0.08473460675359519
0.0249166804595118
0.017745788329590752
0.020815403066708805
0.03668096186276039
0.04627885792338446
0.06300359122960475
-0.09359413584293533
0.08244477144472646
-0.016434595684163996
-0.051303068911176204
-0.006784334488360243
0.10303663197621825
0.07931206303145398
0.032501695515932454
-0.025395820628991903
-0.014952203790217977
0.012155881815869872
0.10524713796342851
-0.0018494850860743609
0.0705625761622104
0.012926723488078641
0.0078030478723867015
-0.05395812992365487
-0.04193519703285509
0.0061839862403595645
0.034018550454310195
0.035968179012216155
0.1006572480832261
0.007864363303823714
-0.05553668311238656
-0.05554099194781226
0.0030171284658884073
-0.0041079831078515965
-0.08439266509482746
-0.05478255553021451
-0.05071052944328728
-0.0068767184167009155
0.0333876213843404
-0.018361805381641713
0.005259403401474549
0.029980782123222697
0.06852083241096418
0.03062426787868796
0.0020622876720750956
-0.04076439456053783
-0.006312222764987751
-0.04304420018551868
0.005924440134625761
-0.10023599528380901
-0.048641462585776604
0.04708880747957711
0.011341701588429943
0.07228066960644305
0.06089981441237281
-0.026007546928544952
0.06299382559287253
0.0350225513421738
0.014155917652849945
0.00414803613769212
0.04848093512165547
-0.017202732827651748
0.0028481260633124107
0.04003143752039296
-0.04850925144726764
-0.0858381274099947
0.10979620225246786
0.0026250020498415484
-0.035966962715433995
0.09342771662806225
-0.02985720107704671
-0.03531230151249775
0.03758434181775437
0.041040197943785106
-0.08273723748661758
0.012233098702053634
0.03516896088385507
-0.027122107626099037
0.10115860579353442
-0.02367277419024761
-0.09256429992722452
0.04771325014833202
0.06987051000404301
0.028636236183304475
-0.018943785724069233
0.03791436365939249
0.07629430986071332
-0.04626204657847442
0.003952159477315175
-0.01210176564837109
-0.0019758508620799932
0.014820914622980876
0.006944814641342817
0.060898592498319346
0.0687213388601374
0.009406787023489505
-0.022420142285146053
0.04080371130749399
0.005621554854343313
-0.06448864550517357
-0.04857246866438601
0.04143765408838639
0.04043473331169586
-0.04661947685264165
-0.026311627883792835
-0.08719954872361707
0.09448411759411963
-0.020690703704953458
0.006758493796591791
-0.04061812868480794
-0.07083184150958374
0.008702222634862382
-0.058455888239976744
0.010869821918959239
-0.04439037206573852
-0.015570740277914871
0.020156338855139413
-0.03108966735914468
-0.008587439166303718
-0.007626607461892813
0.018128024460985312
-0.09967660196075953
0.10418065640704782
0.050521836787734184
0.009296948805607502
-0.0428951216242501
0.017300965196805535
0.007463317409805565
0.02488035234488305
0.06835795264590637
-0.04363944585630162
0.03284920218894681
0.08907632298033036
0.034534827897674474
0.10215217963443154
0.03405995871768462
-0.06492328130599871
-0.006774374419613325
0.034966189552539
-0.007477297590812348
-0.01949866143685832
0.01691918535553503
0.02023797959419722
-0.07450955292385403
0.06341345076906156
-0.047787412483778664
-0.04610289749481678
0.011106168849659617
-0.03762601217324475
-0.0014462294087982364
-0.07474250100323333
-0.026713793795578915
-0.02717996349188813
-0.021839653271054846
-0.043781244698926164
0.04543353175094648
-0.09997039362069844
0.044173899256164245
0.02036166470906809
0.005227869337147364
0.00777192157665727
0.033084378542526965
0.03320355689655109
0.06679768462172471
-0.0028450669109237295
0.011405903385240853
-0.03226964518280304
0.07588841072188265
-0.004390053751254054
0.06408239148787233
-0.11587768962338305
-0.13570957970339997
0.09025562516391662
-0.002453301692184674
0.07687207129553893
0.05701825052627477
-0.05846003170334406
-0.0122527592687298
-0.06531353480757508
-0.005118163382033349
0.048547897601482495
-0.006219800024834599
-0.028176155836394046
-0.07193123572063075
0.0002677277606402275
-0.02267416013856813
-0.0226060313409457
-0.038747946598127164
0.014940787363961842
0.05980752007824483
0.0010162636378438148
0.0069989247605896565
-0.0172585519091925
0.05955254422151119
-0.04435163983472882
0.13636159633863396
-0.046717930740418086
0.0008882745080875285
0.09878986832683041
-0.04676641062676809
-0.031903746845580845
0.08705719800933132
0.028264414195903635
0.011735428034016717
0.04284266244831107
0.010399909147190859
0.06473264890147928
-0.011635421820658498
-0.07469716470342075
-0.004709573651423057
-0.017838390888349334
-0.08774063563948081
-0.07294876047763138
-0.057372171294155234
0.0007614806141106629
0.05193114390878979
0.07664453166958705
0.05973972629660884
-0.001967143304333421
0.0553471307784134
-0.013984360867748246
0.01944231671018689
-0.05580086437704352
0.00928097543534388
-0.005355959188752822
-0.03215286420190173
-0.004623786874708717
0.0281178555483521
-0.0427120498137108
-0.001817540708572703
0.07329560677111686
-0.02838316934595738
-0.013032485109589695
-0.02589491861724767
-0.014322520488840678
0.03200148022586024
0.028542410374824925
0.04048282031361201
0.013193057467001643
0.048591256554011565
0.08759106732272325
-0.03561953310017309
-0.04445274797146609
0.018733668089177216
-0.07229276226574388
0.0025135906448098023
0.053497593957904675
-0.01522132913059198
-0.02476216229611339
0.04561098067381728
0.015098349297765932
-0.0009617104881405933
0.07183489087184518
0.011890096295751633
-0.03918760092284133
-0.020678252629751308
0.01380872344829907
0.08424311090797351
-0.09437256201320274
-0.0339114117651339
-0.0020229771557034814
-0.019937684165045357
0.002025122040349347
0.00300554910962023
-0.017055050660485453
-0.055352552074913595
0.05939414945628061
0.05166520509146651
-0.020395107412119324
-0.06493048512617854
-0.034688689855993715
-0.07106200081979817
-0.043709905175513535
0.10389699498321182
0.0819187615105607
0.0029039217683983895
0.017438539241676165
-0.08066528514715787
-0.024829960355273017
-0.043077867125407406
-0.020464767779422056
-0.03166528158609948
-0.04289550348896572
-0.03390104390684611
0.06782833500441857
0.09080120989605922
-0.04142175640425578
-0.014107758048812294
-0.02206069491330292
0.014559070323078684
0.017198024631410975
0.06430710289869113
-0.0203601093875129
0.025788564340328987
0.10989840352675899
0.10860722928884817
0.02374767389709263
0.012851176688340148
-0.0028195975028584707
0.007250531674549066
-0.019459789790545075
0.004332206680577253
-0.04642346720487839
-0.03219862825673213
0.05864683857875234
-0.0116815674922979
0.07647406666422639
0.06899649915879535
-0.07372781404583563
0.010447693338160358
0.12138690393531845
0.05729755021407008
0.02249362729635172
0.07033980078023269
0.022088049244405137
0.008912138464185775
-0.0027045056767097384
0.03634367993176644
-0.00816711633957132
0.03408010745707166
-0.01931717177872794
0.11241702189485034
-0.02639059679065246
-0.06426516208733962
0.028417740954218076
-0.02360292141152439
-0.09228026958733955
-0.004235139101854554
0.024348468580184794
-0.04354875475868844
-0.07454995738497304
-0.058750591408733066
-0.028812826962018246
0.02028559356627611
0.022342914687282014
0.0034361743554630073
-0.0719466789266064
-0.02551902191198557
0.03327085675134112
-0.021708328634338057
0.01474028332320231
0.004624623823144235
0.03608233701697622
-0.04309370632735043
0.03933064953974235
-0.03974102909554714
-0.053932721134028604
-0.020313420493942785
-0.023701897970773777
0.003911357987545298
-0.10050294613311471
-0.06531731392901197
-0.037458669141649574
0.019073067464522878
0.004489183748261871
-0.07874663321719144
0.05061664018603107
0.029467337446600708
0.0016960017099215954
0.07345365613292297
-0.03157441326682491
-0.08524477725297364
-0.0230216124146494
-0.03690468593495422
0.02884574320356879
-0.03701225583392303
-0.05391881729652219
-0.030394254397750113
0.02432583050602598
-0.007204886302838574
0.010640161231857828
-0.017476735922900954
0.03226627046864931
0.03348380749729718
-0.007119758808459799
-0.12580656161449372
0.13473658621490578
0.0305314090629702
0.061686411959527954
-0.0034986332205503064
0.02271036757369196
0.013158239895114547
-0.027842732807648304
0.02336069399078352
0.008794659564484305
-0.0032626841027328063
0.037903062831132976
-0.04393168086479493
-0.08301229619999885
-0.02520903754777453
0.02765588328164319
0.03438054605842433
-0.09269005496751218
-0.0175871126557344
0.05518598720305337
0.07351146830132466
-0.07033520513588949
-0.11596234542610065
0.02405346966785064
0.049783210392782766
-0.035030239102884726
-0.005487942790165692
-0.0017510483172284996
-0.018500949928895786
-0.0822017987940855
0.03452329122010324
-0.044724558378895184
0.12147389616406058
-0.07178193902489186
-0.14066892458945962
0.09663588066684428
0.0662474636124977
-0.042844147297829135
0.0001693114954544552
-5.68370395431205e-05
-0.026538190625361377
-0.03375889643979743
-0.028749533457390508
0.03915380668118622
0.06832708899784203
-0.02746701304197556
-0.011174468560063933
0.01548865833479509
0.048046813423310596
0.014402060600462768
-0.0007750783450363032
0.017562133258863674
-0.005121817723876361
0.04352223933775706
-0.021310542216194626
-0.0499065165243155
-0.04634528898398515
0.05816102967170294
-0.06365674533988397
0.06267781209194194
-0.020081418584224905
0.07543636353239595
0.03987673208224449
0.00026188984070106607
-0.017190460935314834
0.027555001076137696
-0.08932004642401026
-0.06261279394285088
0.02801086064930646
-0.014462292461747076
-0.04307081999453341
-0.08870201811960235
0.025233513112926785
-0.03479593339810672
0.050187045153914984
-0.08827407043083531
-0.016908905565818942
-0.0007789110302547236
-0.02127178840398135
-0.0734868210146447
0.03468798511045613
0.032170017616017024
0.00555129134836812
0.038139610137981034
0.04796965822484689
0.04679049865586089
-0.046174289852923094
-0.01089940967254752
-0.005713859223926932
0.07993383169315961
-0.12281020797557293
0.04447363443027891
-0.10122728617365523
-0.007753570845544928
0.0070962697164598035
-0.03667429255225927
-0.018876699462050617
0.020755448536331964
-0.0853882930133871
0.03472432131701912
-0.04748939002263797
-0.015315433651156729
0.05545675413321812
0.012301428908338508
-0.13977558621450847
0.008800501192431474
-0.06302938130232164
0.031125401466045696
-0.062137299149439496
0.026981687085379506
-0.06672766459924882
0.00402786221765617
-0.020684961352292704
-0.013723527858245918
0.05393027811492666
0.0417025680712733
-0.026887427007307486
-0.018434973498015747
0.017989523367346365
-0.06117333478691868
-0.06701976987467552
-0.04747222635618877
-0.05091041739395798
-0.030433498369017063
-0.0005135465050023376
0.028820775948313483
-0.037272045647226824
0.07317506980602707
0.09292398662263697
0.0901392048333218
-0.008097828166927185
0.03571642769324017
-0.010271432407941867
0.04172840299188363
-0.025201866795885385
-0.020614075713742297
0.010931783672053505
0.005637051431571837
0.05118912710761241
0.006902379284204178
-0.033359093227513265
-0.09921566243750794
-0.01064325761542842
0.021080614544429426
0.03491507129416739
0.08580246866638695
-0.02775214110410348
0.1227675702336321
-0.04913753494378461
-0.053308083766459805
0.08397645172780469
-0.019895439274507286
-0.01593822130455293
0.07484005545347744
-0.10890310547595138
-0.06332189113103377
-0.09756141673716366
-0.029686453880454666
-0.025767224974334403
0.008634708484166522
-0.10945205822340424
-0.04669231483945699
-0.041178939270371764
0.003440669435971893
0.014734119896061618
0.09757290363038836
-0.007524214196591763
-0.017700350530916648
-0.015246454350167851
-0.10329983888249815
-0.00839551623352938
0.007488656675675826
-0.07955483781917772
-0.007525567036312805
-0.06914758214059274
-0.16511974186835915
-0.009468516638853099
-0.005866911731050731
0.028624327444044903
0.06608369357463396
-0.04016173597453594
-0.06074964352447218
0.06247218925541769
-0.023524242201546263
-0.061024318052369464
-0.08536509940692019
0.10871985887136136
0.10435522584475869
-0.14107307767466512
0.017549625898059768
-0.03139287157219086
-0.011644744144315683
0.006339438043359848
0.011455844859954193
-0.012647798859603095
0.021086655202026384
0.009380238187351099
-0.0714174355334571
-0.008621380669437038
-0.05787981686128436
-0.1629678276233582
-0.09249171567379398
0.019222983195071347
0.05366051385223193
0.008691025733055293
0.031554712682199185
-0.015830471461499077
-0.04046953646938407
-0.034730353220177604
0.017312241932658325
-0.057145077691366016
0.04483388368285257
0.025802990480411108
-0.014344220656113163
-0.05940959517868044
-0.116793215287194
0.05455597325446261
-0.02476456787470788
0.0033973072637898515
0.1175946899204991
-0.07345184500714089
-0.0902547051296657
-0.0706464850032594
-0.05412605249310581
-0.003393233226059865
0.04738453144837147
-0.021654282034393117
0.0163935712695137
-0.032129548179683096
0.02832038228958939
-0.08382285841736221
0.1317316309410918
0.028710114307096017
0.027386757281730626
0.041155968555508536
0.03649440112657782
0.0030534656456809505
-0.044266358113023395
0.16322265820389548
-0.015695644171699105
-0.08561848247851775
0.028096279477040693
0.08507373686311166
0.05737618820749187
0.0583296865680604
0.011981477119016135
-0.052510684240654935
0.11544277662224356
-0.014225581771742065
-0.0514546724276901
-0.04026836949386745
0.03236629180107561
0.01943391287858087
0.06387859433662402
-0.11469512456591015
-0.041423466321531266
0.10995586727281839
0.0742583882006839
-0.06089027985554892
-0.029914520322812527
-0.06890315216874095
-0.06834701144331955
-0.06326430871883804
-0.011265520213242078
0.0018599991596235789
-0.004367258031803489
0.00039446828350597394
0.01877917273563586
0.03256267524244394
-0.0790667463509706
0.036893169359733656
0.12991939278264514
0.04644391091124897
0.011967044851798631
-0.028165880850394114
-0.040169336309076986
0.04059864884098114
-0.06503037110650407
0.14560878432187355
-0.00037503862666918216
-0.0550165259644778
-0.02636424575254132
0.01714737100636066
0.0005294513732673656
0.0008221547931567465
-0.027955330477728114
0.023850894200618526
0.02599454694779095
-0.011356926537379623
0.0691050582521015
-0.09791870404062131
0.08619711826791102
0.04586157370741021
0.08798285823924597
-0.006377209715187695
-0.018683055031134918
0.04446954315385902
-0.008880430603062393
0.00893656921000662
0.011299983544014321
-0.034493694840204155
0.008818095541789753
0.010601315926714754
0.012340742430878774
-0.024230660104732838
-0.00160944483002427
0.014140040501884481
0.044534491165187755
0.08866677325421439
-0.019562505117247067
0.06847814291627423
-0.028727193377091786
0.11122690003882381
0.013747684019180804
-0.033914826917470726
0.01831106345144596
0.05802836778063719
-0.06865891131872531
-0.0004033782322140249
-0.012021116398908505
-0.025443685528631584
-0.0403202338131096
-0.0769962239413205
0.08114071171976485
0.016573477464910686
-0.00026141895423445276
-0.040567256789949054
0.0684424582549885
-0.037084244154883574
-0.008430770535810074
0.08232459519790829
-0.020532735491281977
0.05443320728507956
0.05029703512317091
0.06641940244192314
0.01990270608066247
0.0858985767112551
0.07598655432573717
0.01278329315372969
-0.042332230876554154
0.07070172615098462
0.0017303932878056784
0.03838367807077661
0.023312363235089433
-0.016594628874695337
-0.04945346270774134
0.028528093826191883
-0.01789548095445139
-0.07472692063463622
0.03925771931179518
0.0260639259840642
-0.10643383411882353
0.0419453876685726
0.00572548265399654
-0.006945517479505783
0.0636289850164522
0.004304870825952667
0.047074839805392864
0.08221438824267123
0.03569630209789806
0.06021327525018611
-0.01803699004188419
-0.024245583090296154
0.08200237163957717
0.0007668724345306296
-0.01752788998695156
-0.08267430739917886
-0.025762653563776917
-0.06100676190834883
-0.01142328783258853
0.05170574539512694
0.12349492320808857
0.04863285736198686
0.044716983013543536
-0.009676500725669498
0.018139680835669116
0.05260038333320241
0.012857135122429093
0.08686195945273556
0.043258348733892844
0.043460582034130994
0.05935726710000235
-0.013922461335084294
0.027809638429389723
-0.0001526460105666082
-0.03764961267361338
-0.029661349967574194
-0.0717359499530517
-0.023623510281889866
0.018169038237459165
0.09986432128631748
0.04042176094442382
0.0794594650026627
-0.026110119780312233
0.07014515479668715
0.07200069636373296
-0.09122924622794351
0.013157666589773446
0.0075316844915802655
0.009256347368538679
-0.0399537866979033
0.006115655783811027
-0.028171197681364613
0.04478812235327182
0.009085624129269266
-0.06317961822848434
-0.04030626694908722
0.018334598399721982
0.07169305608544901
-0.012723929308766218
0.0982911917665763
0.07419532002321265
0.06268182389567482
-0.05315002155917811
0.05869226941589339
-0.03518486230174716
-0.00612735514056691
0.03374809889075047
0.023772669823788166
-0.0734206287703886
-0.01634410226060974
0.012356502730502561
-0.042352443769543544
0.03402894842896886
-0.04052993616412196
-0.013621252040326218
-0.06367945393815237
-0.033926273394672385
-0.054132276244139896
-0.06802572280164292
0.04120348224263739
-0.0811977079336726
0.06475314967645483
0.012861577650780479
0.006819447562678909
0.08662676310499673
-0.0552153340856567
0.11713375389958006
0.004304329772924932
-0.07378084066990337
0.052884833010008084
-0.026419600882806794
-0.07875179246145557
0.009198619810512683
-0.0398545362389812
0.04330627916159767
-0.011277294354382354
-0.04950799094735519
0.01573893858252686
-0.02855596098434771
0.04465497677741008
0.02077078765321149
0.06205138854540143
0.01688087433197259
0.007167044779366368
-0.13278964300331877
-0.0020512338860797187
0.02410547496514395
-0.006970132647490382
-0.045000093141107415
-0.03355565442489998
0.02954600258004915
-0.055035259747519695
-0.02042148916146929
0.009387341826884008
-0.024648307773086253
-0.008669152255360713
0.07191416641353242
0.04800018777613589
-0.011152377346522517
-0.0032743492023478813
-0.0315578858286552
0.013667541908050298
0.06564996104867638
0.05107913785404204
-0.06728635768497648
0.027313372335232407
0.007945662096841511
-0.07850884504687541
0.020258163014792597
-0.05371711904344992
0.046396676150313926
-0.025722834336349663
0.07511573408246744
0.02628901019906816
-0.03420359082560814
0.014958030605244886
-0.055960137159293925
0.014937159684497917
0.09391861329822769
-0.005040046733778148
0.08891307087802434
0.013908636486950211
0.07071194526031976
-0.003745874951397125
0.03406842440141762
-0.09950358315313405
-0.06803939749600649
-0.01382745042660423
-0.0787133557890168
0.04895451519048557
-0.05694099567475956
-0.020090657813384736
0.06365985919859422
0.03880909419574978
0.06858556834950658
-0.01923673521327913
0.007679700374414491
-0.054654871663391405
0.02543805717255348
-0.04230063269066052
0.0738337786304731
-0.015718344818629458
-0.09307397961209322
-0.05466490285925054
0.016676875682794672
-0.07524119186227787
0.003439513621109843
0.037255205546494564
-0.016810687698326904
-0.039666958461357836
-0.011289868593157273
-0.009591010909759492
0.09064029130577404
0.013573599890633479
0.02909069244658454
-0.06164368571902786
0.036466556470189544
-0.04557474200137902
0.038173334157001845
0.0007078762767533855
-0.023156706778859736
-0.10738375569269847
0.0642590105046957
0.06063405190005922
0.0361227789406823
-0.04445138579494152
0.004958045884105608
-0.01609942057053573
0.016574184029428167
-0.05804454458436305
-0.006710131624514202
0.08931399932002428
-0.03994854585719968
0.002506824550904449
0.00514068131966733
0.03003147290284005
0.049274181209197285
-0.04083371425678376
-0.016230007744365404
-0.009205683326318062
-0.026466568335853875
-0.022376667777285537
-0.007484070502377327
-0.02256246330256778
0.00078293721045758
-0.02859531588821678
-0.013593816989249476
0.033138689815800225
0.011845523209610345
0.06325091759997137
0.031574991841924235
0.13214309096931529
-0.00836975042722939
-0.02547051720251566
-0.03777465752421533
-0.04845313329317651
-0.047890377210717955
0.022893686284174944
0.0833127370848185
-0.0320809592009005
0.0669949225830901
-0.005117580872330494
-0.011912563339399782
-0.041332095298787466
-0.06734910703773665
-0.045194297947568275
-0.05316645992150826
0.04444129021963107
0.020567939682502586
-0.038896522889690054
-0.07599093311952232
-0.0468097725510525
-0.002121135697652247
0.000995196651184131
0.0010440892217289533
0.01696569030940756
-0.0001810413068815664
0.025971088531367318
-0.027787770795949244
-0.007427469849524841
-0.039808082778098455
-0.01151191430874522
-0.013750486765815162
-0.047416263138855545
0.0006456908368076919
-0.014318688011137887
-0.0014115850043831695
0.01101821976981982
0.08879390470166058
0.059973347036924037
0.06206821817619894
0.01843920015206671
0.08864697538617757
-0.004850835101925669
-0.005617039688472554
0.0475296173962693
0.0852984858433907
-0.05867762210933075
0.002007798267996698
0.05401425917457069
0.0639112398551164
0.08535508641090199
-0.0132434596492302
0.0354635676489327
-0.02496982027726753
-0.06849311787976084
-0.062299841874799665
0.02467254800271342
0.020385598255678136
-0.02311741609995617
-0.051704380891742584
-0.014228849446479388
0.04429609689916782
-0.01586084960318689
-0.016274698722067542
-0.04747657415954431
0.017622566890773822
-0.04372858955899081
0.04727580663559554
0.01996070243083725
0.01796227146537423
-0.0024298321792054164
0.006517749552746948
0.052826739756162186
-0.03123563057813848
-0.08238760409796937
-0.003685228323419053
-0.02815973303855492
-0.011204094563777167
0.026885147779447328
0.014682571564454398
-0.011073966323402415
0.09513652257869483
0.02920715821259718
-0.04404710667576895
0.011645420326722876
-0.05235544704085502
0.07190312112761042
0.020499693760440998
-0.02917993614987347
0.04715118202134741
-0.12167040646228473
-0.013797019502930084
-0.044221959102535915
-0.011953303776024658
-0.06869293222062384
-0.0006518374705722234
-0.027736338829963233
0.06603153921800946
-0.057658184664759644
0.05203041704588353
-0.013739591259449836
0.00902239369573287
-0.04347643612785935
0.01632805478889556
-0.02006972324831731
-0.027983050273641532
0.06781287840842212
-0.07939300229611827
-0.027343257680100368
0.048660109514182356
-0.009812810903988655
-0.08492093777099682
-0.004019259104556748
-0.10989167926771574
-0.05036165694026065
-0.007731369550568417
0.020022172140689926
-0.04897785886268116
-0.06271755930454086
0.03299614201880073
0.0201614240967186
0.06909906226586582
0.012806417054974543
-0.0021195091188302806
0.044142457620554125
0.051262829050017146
0.09393884440721216
-0.04280377173270352
-0.0015155873132807769
0.09058668756616713
0.023761309589121784
0.04092118893691479
0.005015697150910668
-0.040416641902612585
-0.034217023724487775
-0.040291877733839555
0.0034611134447762645
-0.057036082054723006
-0.00913668980088509
0.011936728200822842
-0.04727781776895069
-0.053366341918438906
-0.022191888794199262
0.07605032194469832
-0.014631953563702707
0.040360939250928686
-0.006242037193745482
-0.02273190496080568
0.02640951804747938
0.04870393163289099
0.0018857586896289837
0.00038379923857734016
-0.06815692238554742
-0.1440036816428278
-0.04406200404049158
0.016727387443121387
0.024792059198112573
0.013702523002202387
-0.07607645848520111
-0.037627443807902144
0.029621629973669263
-0.08017738652488662
0.015336280436690655
0.0747222270206232
-0.016167417177920237
0.04841109615868782
-0.017815866484031648
0.007436155327269825
0.027244593571236982
0.05983127808495017
0.06921428734708074
0.05866162297809527
0.0011982370824534078
-0.11961304132441432
-0.023679266198936788
0.05021753323051477
-0.04902665824008032
-0.0758690468915559
-0.08867491096194412
0.0001926100974325289
0.03875182283144154
0.011921757198353677
0.0012753445774208773
0.12365260246352865
-0.011167205846550557
0.048839605534649326
-0.007545517552345678
0.08039268491362717
0.0729197993952991
0.10853608069707744
0.10161746200105028
0.04027957239248141
0.026495486918263183
-0.051898235306323405
-0.013612604215194803
0.022752239011899527
-0.03211254353880999
-0.049728153581585915
-0.02201998618866491
-0.02556370453320799
0.06925502771867038
0.05068191543951395
-0.02323959810265727
0.10132163079487423
0.015495555686432776
0.05212942512023605
0.0942067329270456
-0.019717152530528144
0.03996743334143781
-0.05007438793392779
-0.06472061479054941
0.07831659735829755
-0.09047973980299125
-0.03176753085344248
0.07995077766326228
0.04561480124305764
-0.018236293984392284
0.04449246280721734
-0.039247470471360416
-0.0032617733387133177
0.02062140814178347
-0.022896554677236166
-0.07541595710401094
0.05194497380927296
0.00431994549385014
-0.012330178006488057
0.00839612671694469
-0.08923294675094869
-0.029536001628789048
0.01988133803593088
-0.05332822497198932
0.05384635133683921
-0.0015868753752131463
-0.005673557833732252
0.051882864136896745
0.1245611364608791
-0.0399525763149484
0.008228036127621852
-0.03943685776275951
-0.012905517775161718
-0.042932853997663195
-0.010573279562563815
0.02040983915393086
-0.06707233631813811
-0.12112299726828171
0.0031928860073670374
-0.12377148703643043
-0.07088941646187641
-0.04901842558823598
0.16063658554257487
-0.024625828362487338
0.10310888472933934
0.0006829179036958299
0.064527889929255
0.006291288178448215
-0.06102165439951112
0.10451436851883987
0.021176077723707172
-0.09642317106394913
-0.11851696520977847
0.05641600842197306
0.0881111325650897
-0.05871636391864199
0.0753426312137037
0.01709661889337853
0.0072435393007571165
-0.04504181452268569
-0.10896719313280463
-0.10303223129499002
-0.04095291350236448
-0.060253325110064065
0.040469130530856566
-0.010951444731914811
0.0399794796142648
0.03619025161417961
0.06954738081551459
-0.004361281899054586
-0.012784330695201218
-0.04007937615484634
-0.031207134151835066
-0.05906016817627568
0.038891330018669956
-0.07319645436189584
0.03011581842242874
0.00887216202685407
0.0059014887894762325
-0.07650913011951269
0.03251554938660252
-0.10757880445221406
0.02677812323434886
0.021027011738437684
0.028592343529409633
-0.01898149731143192
0.031053094328421293
-0.04851222925182628
-0.033790610151310144
-0.023539657455679833
0.08120103724299797
0.003967440547889999
-0.08211548407733459
0.026366974400646045
0.004809333672697678
-0.018849048344574973
-0.01650016681823593
-0.0856458628806093
0.043308552560935486
0.03416502297924113
-0.011719368135749387
-0.046170633483651184
0.03576318626374616
0.023790377128851764
0.051530938246243434
-0.11826392058855464
0.09480144178428011
0.015084876876975201
0.019348569731890912
-0.003437200528646191
0.05786510318345238
-0.06805521009146781
-0.07899346395844975
0.040409880620250686
0.024963602107212247
0.04387678607981184
0.023919278884851868
0.004751369514460679
0.03175585470750156
0.11845566824395024
-0.025687348370893634
-0.030482409771427132
-0.00855942496833452
-0.018960152127266247
0.018775993372660307
-0.10965365158101836
-0.004470951053166124
0.09684628150154151
-0.008030371158592089
-0.0017819077123774722
-0.052307969717755615
0.032697622769138825
-0.035088816457459884
-0.006206865886467348
0.12098638300680636
-0.1302975802938906
0.02239032739249897
-0.005654417863795464
-0.022010279024040295
0.024724195012239932
0.04571867738374055
0.035596127630003575
0.011906900938050186
-0.012230164620476896
0.07217530905255397
0.026705135614245173
0.07261898929373661
0.0314800338113007
-0.019056824307624037
-0.06537634997104483
-0.002535016153887882
-0.016999024509462987
0.03212934524848096
0.01992480518836283
-0.019840307380871985
-0.011560531361032559
-0.00010409122170977192
-0.02601057182593808
0.03213374562204203
0.003984727136139049
-0.04092521345815512
0.05693103650433097
0.03484400887799453
-0.005508449534306416
0.040432619415521724
-0.049844431830273275
0.07846727232048943
0.008299116193770417
0.003948098281095663
-0.07513134782396326
0.04989197267209483
0.0050402762380783485
-0.004353434553404348
-0.0853116952528733
-0.030988440767804357
-0.08863334849648831
0.043389769216602585
0.04488876418769809
-0.008718848803646179
-0.008723801067060714
0.02447481399372564
0.03257443863868483
-0.0386677823745822
0.07054846134878327
0.05633068795431302
0.10164056973808651
-0.008843501644726082
-0.06505321790086709
-0.011627299377166753
-0.08084243521789927
0.026376901645740004
0.0074821961471110065
0.11158759473198385
-0.07641544968358412
0.08920463826527333
0.053361951466990354
-0.044652155143261194
0.007227808681700433
0.0025642104281042655
-0.04205187590503783
-0.020721748123315467
0.1122246809029492
-0.04377683749653368
0.014077026797389987
0.006842408886422017
-0.007710370638776699
0.14892231397865094
-0.059463435763466875
-0.03859372137274518
-0.09050558484033779
-0.05487429764469318
-0.04043784223435418
0.13829458977869125
0.014827274902814156
0.031527822483875645
0.02615248017231286
-0.008174834387785823
0.03673863284890058
-0.027705188834446733
0.04037376898312737
-0.04121570746799444
0.0943754174693799
0.05285331248850983
0.0005711790745548668
0.05397412092968389
0.03324022738593022
-0.0096022941909248
-0.07674558776313548
0.043177431868708226
-0.13180557933427253
0.03699514429543741
-0.011075133256159319
0.1799368913362733
-0.021303532111963775
0.02047633085487823
0.09410723966826195
0.029888940287308024
-0.028664353097932978
0.07996242795127503
-0.05080469805583245
-0.030831490125372608
-0.006188638326855575
-0.04123024359056283
0.009550173332852938
-0.04477663460337825
-0.025361364243219664
0.024889137060413766
-0.0528713760867547
0.10175230075406858
0.05315529113832073
0.00307324422060641
0.05581265257863839
0.05398266772970984
-0.019664000948830435
0.006091356608408395
0.04153258885048041
-0.039107797532885895
-0.0039131384793944235
-0.010886516038262403
0.009178850980566
0.007528724429591031
0.0519611256596322
0.055773628045958104
-0.004508940350854228
0.08087638449537614
-4.238842834319458e-05
0.0429182197821406
-0.03290396980614112
-0.0738022863159265
-0.062217658171693446
0.027516449135074308
0.053236081678354974
0.07863729032075814
-0.08326074115646254
0.03393734906566181
0.024027742590731947
0.03294920804747976
-0.01642679085619456
-0.043804387866187934
-0.09089494297312344
-0.01204916108194446
0.046441891388595676
0.017245975263029345
0.020605985108942414
0.04201472976401114
-0.0006743086658141577
0.012598724859630414
0.05180969201203581
0.03552871615409633
0.006700409693016236
0.0076457039486207586
-0.0025657243010796067
-0.009170679799706137
-0.05080991700521089
-0.07024430985731787
0.002586495118545879
-0.06542426363375235
0.05565998096506529
-0.08302306611019745
0.06414749889408405
-0.002603434704781742
0.029468693625017382
-0.01727458451619554
0.06058836360992422
0.05415461167809072
0.01082936955078753
-0.007344914883582842
-0.030840608198305718
0.04312063689683362
0.10399189425382883
-0.03353203594256257
0.03444609592660884
0.026318517608580092
-0.07668517573754584
-0.014729074822440003
0.005109328150722613
-0.05549619831836928
0.03753163227100904
0.07035874662929308
-0.04613684858706111
0.05306819784327775
-0.04413993240088621
0.06162499922006939
-0.0017743869227120485
-0.025438155807189954
0.011225334484932523
0.04364560855619439
-0.007435135659848366
0.12717356268570096
0.12472306982696368
0.01882161213125214
0.046485017550843756
-0.008477494948326135
-0.010376387790087024
-0.003687838073267054
0.12590716791168372
-0.07065064501423393
0.024663475840627294
0.0900994099066395
-0.056293434267336726
-0.043180705615355454
0.04967980495176672
-0.030044798001433736
0.0879902862476602
-0.03082835108242625
0.025483816347318253
-0.047416194947590855
0.03397626690439493
-0.03213821283341915
-0.019420987761413697
-0.03831981816862668
0.01789563572643262
-0.037597902451741085
0.013772864440485035
-0.02104156951580458
-0.041882020153580675
-0.0009183816938781171
-0.022591031904547778
0.004998743197873378
-0.018597892442971314
-0.0034968399979516188
0.009815397418055299
-0.023204122203121902
-0.06333242933845681
0.023366619709498083
-0.009002847784995762
0.024450477112658076
-0.017963791075387495
0.004818544156885772
0.029062690026289275
0.005114820270318935
0.04118552723731939
0.01863349104780825
0.059334851579363815
-0.11012977266824228
-0.023514169033579276
-0.05737352134659819
0.05777235244735629
0.09847973761009542
0.041704299043158866
0.03354931580571341
-0.0032359189554005286
0.05409140275246709
0.09896042224321845
-0.05795695938756451
-0.03942632421173705
-0.01433139450123879
-0.008335212106028321
0.04455380819470656
-0.05879071437024615
-0.00704020885382419
0.013087209095297396
-0.06426767494138705
-0.04832121554810712
-0.007046307411711319
-0.006990772253527739
-0.003623954225601904
-0.03151174424736272
-0.017454361764124373
-0.026198474217421105
0.015083436229370249
-0.029588332986675705
-0.0041942588287172625
-0.09799726233570856
-0.06808150975909641
0.028597064557356965
-0.048570809159454165
-0.03974343449184562
0.05305740445674149
0.01844819154146061
0.030737419342124563
-0.04863200310727946
-0.06699136936367185
0.06834954753187865
0.11412353566629935
-0.04926121448844092
0.010758498215608186
-0.02133571822940001
0.031343677981456916
0.03792423490481793
-0.09878807163161797
0.03554575170021218
-0.03565130027754994
-0.0431734923091382
0.030452373260783334
-0.08324694694583512
-0.08963128305678802
0.06564696055574507
0.04363846157077774
0.13612979431435768
0.07327939896790531
0.020198644909968054
-0.06096728051143757
-0.013765892300251091
0.02826849969835112
-0.007700422592304051
0.008635910181931349
0.007118438806429016
0.05715759506778754
0.013730751868898118
-0.013921333402784782
-0.0801205959009204
0.09990299131356495
-0.04009109177997706
0.009444885983408062
0.012308189480611248
-0.06746928725951719
-0.04102996466692096
-0.021333292688982652
0.08714089297518801
0.12885056022641792
0.12379022588804776
0.026737841300711468
0.050112838973273434
-0.0662736326707413
0.025575730881219096
-0.01797095162373292
0.10392943512934115
-0.016049579200239902
0.05537085623077432
-0.062070402608375215
-0.013509943352110506
0.05785799058144701
-0.041939027509274175
-0.03430236729161666
0.06402379178543724
-0.05749079725942422
-0.06246436805123018
0.008627994777889418
-0.0342243538469063
0.04132379141607068
-0.0063012943925981595
-0.017755980005939385
-0.06988738732265126
0.0014073788222174095
0.018872886609869906
-0.005472059924654295
0.02705671991663168
-0.02158276344506145
0.1018291641678113
-0.11026167235770519
-0.037559345272944265
0.11625609359467357
-0.01541178773340886
-0.002183736079941175
-0.05268145827389768
-0.03396348004954165
0.012832180410479892
0.04977720575713688
0.0787179220736722
-0.03987921207440865
0.02710176004658734
0.038256121986307484
-0.030486643336818896
-0.011286872309621047
-0.06544336168398825
0.008691638044171453
0.027554700317981178
0.030389847435730324
0.062377181126336056
0.022245390388758123
-0.023109692450350324
0.0208231808530956
0.105856003670893
0.029999739281611433
-0.0018556083133952222
0.004213789503331939
-0.09503591073662088
0.023984332441071895
0.004484476648856492
0.09073077520789422
0.055298382794092646
-0.03968791613182819
0.036986575180775326
0.027243766558478523
0.022862535497922335
0.025581665416972623
0.048098071002966744
-0.04568365754410045
0.0025580981733085754
-0.044739859675634416
0.043059336268222705
-0.07855684261765651
0.048870959540464894
-0.023418675505453776
-0.15886423372975955
-0.04783374218799318
-0.021532709499230557
0.0012278776565037195
-0.0014379620622365608
0.007559528975283283
0.005033232547956815
-0.08963242619768359
-0.05320882390236517
-0.012999386247725344
-0.01745778645709517
-0.033546626250390975
-0.09106589393248425
0.025841954114717593
0.009880879983593983
0.005035467182522611
-0.013749307784995468
-0.048262806112630036
0.0188442183257517
0.01116633285099239
-0.08448730437697681
0.04723269421284376
-0.09047498899051994
-0.0405871023501834
-0.034423953107421974
-0.00702447100398996
-0.08802847361152594
0.031442394587462376
-0.1026307744306898
-0.02953381168718978
-0.014681963634217119
0.03874860976742863
-0.00202705167862583
0.02505455424741125
-0.03229060206386538
-0.01629253296848955
-0.06492993667974802
-0.017102045219982286
-0.02868113192602028
0.013447641098542991
-0.020774417141572413
-0.019622737382989013
-0.0400265351003377
-0.06897482268885984
0.08959903359003828
0.016229220346945062
-0.02106283259113778
-0.0743641319787334
-0.012917251697210292
-0.05337269501535421
0.002967768653411779
0.05019278823343649
0.07391187937836755
-0.06705996763257135
-0.12897747460864736
-0.056311415594794884
-0.06089666512759761
-0.04252881386322349
-0.11477568457451658
0.05998837045308681
-0.03589784692093105
0.005398437183254654
0.046882456447388796
-0.013867252805188256
-0.0032086316461979224
-0.08585387021030272
-0.02771402716313421
0.113370082109948
0.050369943843522
0.07918592486040961
-0.023361711742853893
0.10633990062085177
-0.027326778925959742
-0.12228525319315613
-0.025638263339928788
0.029207086803393335
-0.14788546084910112
-0.06559259725123778
-0.017602830533109893
0.00037256045331215514
0.05624344436819777
0.06388647696257191
-0.049005910055770714
0.01908202308078662
0.09928948640540544
-0.005338527456703976
-0.0754867683205062
-0.019573275351541634
0.02828035497397076
0.06418432579638166
0.021950241127342767
0.11756716688615669
0.12411419148017983
-0.10880659148485193
-0.1041802130842465
-0.09318318542237952
-0.0874543535977604
-0.027980614552155073
-0.05187977035442279
0.005843677859941814
-0.10322560447649477
0.1405353920637921
0.013734029224662462
-0.05209545283306225
-0.029503233287609048
0.06523401986281142
-0.12203003935616125
0.0015373804230649282
0.0320942125062612
0.016128371786707455
-0.12133362932228521
-0.02902108866227202
-0.013399599754919143
0.019005624937143445
0.016101106737551767
-0.0378166533079221
-0.21703613099961505
-0.06092508273909537
-0.1600012122565547
0.07158987834393236
0.008388307239481927
0.07887731766711087
0.014669931278839643
-0.061172718159067656
0.047174110180402004
0.02663563087721588
-0.06962702236389937
-0.015008913437988653
0.004672673848131627
0.0007987693371235225
-0.0319407407842765
0.07477190698531773
0.05946737289084081
-0.0786323799205449
-0.010053233336818663
-0.04017853349791622
-0.14554520571470453
-0.07088894977698926
-0.0928076898662104
0.0605046369799845
0.009929421277812876
0.11743507748960859
-0.10365663744377153
-0.05018428932696017
0.028139323083957297
0.0234628197722994
-0.09316170829971222
-0.057009849158028834
-0.0017743880113954562
0.040191606124211354
0.04088741213589502
0.008872366755568892
-0.06627869922469885
-0.010859491663963458
-0.07272060643104027
0.08206141266878735
-0.10855885805241491
-0.03605449209663694
-0.022423359004239512
-0.020883742541111493
-0.07187000594710118
0.043990539590753455
-0.06338646565174522
0.020504254926643897
-0.09498619771279428
-0.03120597100649371
-0.0996749124831524
0.004299060145705545
-0.043424726788689444
-0.09294030604388438
0.025279280661825734
0.04690917652665249
-0.11994267764487297
0.0304851283786945
0.06468722644977695
0.06504334852134724
0.0072219183629054825
-0.016261524030616505
0.005485336814113118
0.04109428297127152
-0.05512314525127877
-0.17556155242942068
-0.03101746284348863
-0.02938783010891537
-0.037621043467839406
-0.010305459144151945
-0.07833047886012034
0.02574133156487438
-0.08465897680782872
-0.044211428398382824
0.04660483073384421
0.04156246230341424
0.09638997577713199
0.0080418594183186
-0.05094616936181444
-0.015876271594735775
-0.053846246502026886
0.04111739576895763
-0.056515461468848754
0.0022185804172080536
-0.024997826797944517
0.02276862613298136
0.016476428714206067
-0.024490044733007775
-0.04367922001490383
-0.09828622000929714
-0.0229830508632913
-0.023077366663441564
0.06567346714943464
0.020511634380891756
0.0036304030474077044
-0.004126807528319317
-0.018889956336923648
-0.05282976521046984
-0.02692231469292612
-0.03192333523647444
-0.009604864212541057
-0.06745335950201695
0.005499494230788875
0.03971250704549269
-0.03767529342634643
-0.03141568463183106
-0.022325700834530747
0.024091690455265075
-0.035960777125425405
-0.021844305223892593
-0.1060969276774619
-0.0519676543214839
0.03693348774706866
-0.04333745544338875
0.04629026431522718
0.06114139932776831
-0.04537238329301772
0.029786817372672213
0.07662702387152971
0.05189371729204278
-0.03357299066625203
-0.045182632669978524
-0.016857113152742204
0.003344957543207577
-0.027690665393333966
-0.015143834438195088
-0.030940142856929666
0.013852006157975421
-0.028643307201223288
0.01747733310402817
-0.036883570978097434
-0.04222504639922793
-0.039875402276851366
0.023118821380663807
0.019292124076277777
0.03483951379460151
-0.08257373252003959
0.03413841057764988
-0.010958083795895638
0.009833130664564102
0.10238153783498599
-0.03572541546933311
0.018241701070580794
-0.02149316756599781
0.04492527955524293
0.09752543526563501
0.04371440888847358
-0.027609145190155247
-0.00802717816955265
-0.1197596243970583
-0.03491267547630968
0.010261966411124517
-0.05260612227580212
-0.0575347253841623
0.07317731003391924
0.00528268687744768
-0.06277737514326945
0.05049485673712743
-0.07219020717289827
-0.01783965150749816
0.09501737565663654
0.011088275678775183
0.028573113579710225
0.10581078139403059
0.014024781045334375
0.02541267206008487
-0.013842067398142312
0.021241173739331022
-0.0021563209128895636
-0.015211924315949412
-0.015907506705552295
0.024815802439201784
-0.06649337776780141
-0.10807144871296127
0.04000953691218391
-0.024406829877826757
0.019385669989230046
0.014420239039052818
0.027194371686654617
0.014809382369898384
0.020482562520241866
0.004033788357569841
-0.03437122636482539
0.06212700997858383
-0.03846029632657286
-0.01276892022169614
0.02400964349867809
-0.03697876042168631
-0.05829261173798469
0.12564072463986642
-0.0037997459129954867
0.05780048113257534
-0.02052557376035582
-0.0010850572332449712
-0.04000702934050741
-0.025791517649089622
-0.044169162159273724
-0.043313947992978524
-0.04971552157185294
0.03479910348185991
0.0351678407546966
-0.05746796164223477
-0.05498592515634099
0.05441621412294473
0.052540637862248295
0.00848959578835523
-0.01120854589533937
0.054114750139751526
0.1092421359110753
-0.05670006032294247
-0.04237427374217983
0.1283528510209114
0.005972875619036646
-0.017949109433605254
-0.12607681162568418
0.017847524099227942
0.01754849928173001
0.03321804693688091
0.02365381377660206
0.036008938967180555
-0.05272357758674411
-0.02251492826940724
-0.01041134027067386
0.03295763651718165
-0.07659145619027513
0.09067126027085767
-0.014651653452569382
0.026301890426582073
-0.02015944374512889
-0.10496475943111191
-0.005138646726185769
0.010606713852699175
0.040779533607553785
0.03322831922198472
0.10478601127021975
-0.0017981805976633296
0.009412847086810042
0.02025220369731583
-0.02617058601148111
0.012202843542574742
0.056786442658690525
0.03433653586831785
0.026345765267256516
-0.04473488497908082
-0.00022023875975574507
0.007278927269278422
-0.04308996665862938
0.002207118193277174
0.03162093561669924
-0.038298690252736335
-0.12028644903033962
-0.04820801331148346
-0.1060551406645888
-0.03208045397781501
-0.004312734599245232
-0.03270982080178671
0.052116798110229866
-0.08499419821389068
0.06280663435379168
-0.06971317696179413
-0.022895216390837168
0.008342883350718025
0.04821971765232083
-0.03503879281766344
-0.023905875344499058
0.07922906626440512
0.006382170960661068
-0.059572147738934676
0.040722107439721364
-0.019226000823611762
-0.16983636778831793
-0.07502994713842043
0.025383782341345175
0.04224217909726891
-0.034822225844687145
0.0087264054940951
0.01905614287400037
0.057549280429584
-0.011877923646232738
0.04190819954984846
0.055087862491216194
-0.024737418207725636
0.014940781784929172
0.027932670207895118
-0.023696232106708917
-0.006027974956317787
0.14154158545803078
0.030511738538187137
0.049615248860332806
0.04266220283807541
0.008371182940353331
-0.12426573584744771
-0.01412345071895815
0.0221877490979814
-0.04006111787334977
-0.06037040155773816
-0.07514940580377526
0.03338524789671524
0.009838874893780068
-0.04399377777770082
-0.0736343436472178
0.009656374949268489
-0.09523607031976336
-0.05419068387417823
0.10966278249229791
-0.005787239023621205
-0.07241465546550806
0.11918402286620419
0.014694100921482696
0.02749959201396047
0.007515870687695604
-0.051153068548940216
0.012259715315222726
0.0817758696906885
-0.050877065127249994
-0.043727005084576845
-0.003042718107071632
0.02343859074421785
0.04328837734160283
-0.06854101123729077
-0.06572439832274503
-0.06391731919589808
-0.05163678777671634
-0.08238964792768952
0.012624969404112481
-0.04644929738695025
0.025628569740568256
-0.04460989549497735
-0.0011941107272241654
-0.008969609687459862
0.061854976886312085
-0.014834547980518241
-0.00919071012765585
0.03729979875783014
0.06259073488269393
0.020292072624486075
-0.022723957980029193
0.03544772261689577
-0.05575285001805642
0.0013448265885438527
-0.04498798810243976
-0.022323563821758433
-0.010260725191252694
-0.08867582279028959
0.004426071715199752
-0.0040415231350460715
-0.03383453697162776
0.024895558772157173
-0.0023553450710193024
0.025662664806899303
0.05276563014919119
0.004644679476973805
0.03563831138973327
-0.004899686425772946
-0.017551032172587692
0.053717670063883886
-0.02851711957111251
0.005987936482836989
0.04325203958929528
0.017956663736908605
0.047701021143577445
0.030222356373701936
0.05254003798698131
0.01954209576519339
-0.02939311269132014
-0.07193796689796587
-0.06033249115359839
0.05473382940572394
-0.08639676992047174
-0.09853768535267961
0.07072624502975186
-0.013818833036652278
-0.0456107534286247
0.08333249207721063
0.003497694047125866
-0.0634428343214391
0.13452349479790798
-0.0060729261558736345
-0.001066269854037288
-0.034421456645720425
-0.008513672165286751
-0.07479475611378619
0.03884169271222489
-0.007567673861505079
0.019927757199008102
-0.04246627689547658
-0.05681701323547023
-0.0452035648735124
0.028579679011875244
0.05789869319715491
-0.03140046605680152
-0.014964651970050716
-0.016999392519789575
-0.04284681202034569
0.050362680631409376
0.014672205873895252
-0.06770920652053693
0.053465016720164106
-0.050438184599009776
-0.019700351342380178
-0.0353764060162308
0.02361348378539233
-0.08304936203705637
-0.03152220360765272
0.02822773831276879
-0.002886046443014367
-0.0308330056727718
0.005691721727241588
-0.07241499625884845
0.004600570265721176
0.004590798166568209
0.0003874720320093299
-0.04994443430203021
-0.00026395107772825375
0.0028596053864944943
-0.009328427701848765
0.003050090394671551
0.0053026478988421975
-0.006736475116302421
-0.057763206111473314
-0.0005288192594797284
-0.0357446007054185
0.0018999546975290427
-0.015229832301316897
-0.03778188628008145
-0.07501212580078088
0.04254732906494669
0.014280057114532889
-0.10871998003182543
-0.017681854199469903
0.0527443073987524
-0.026658305224761703
-0.044649079713043986
-0.03903842346565176
0.0468249581596472
-0.04050648132370393
0.06110009448022806
0.05580428944234905
-0.012046006589599405
0.021212830883337436
0.06243240240162912
0.027918974365839424
-0.002333282024910052
0.026910248203476744
-0.04118888261983672
0.0286563340444283
-0.015761380106054042
0.007618755023578019
0.031795197931315064
-0.011838288894213816
0.04972625960671125
-0.06765133368915453
0.025328022912752265
-0.01159404647567024
-0.066975206190238
0.03727061954682084
-0.030121806865624396
0.023777640126003443
0.008447721313133646
-0.02030424742902688
-0.00840154925760131
-0.014360268434691131
-0.013388868466710727
0.0486897310733419
-0.045363109706808624
-0.05303781511451547
-0.05655745109666792
0.007219587767243257
-0.00014786964089751498
-0.005194753901625674
0.05305799869036402
-0.04981361557273906
-0.024772245782180978
-0.05785852144722869
-0.03202291091810103
0.012122093825733152
0.02218233029324493
-0.08371457538073462
-0.08317057066366262
-0.07878498462442111
-0.07977595020853956
-0.028302347080902242
-0.028995257402794832
0.04685277188033897
-0.048000971630580876
0.01741435256168878
0.011132651078314692
-0.022854494399638135
-0.11853705400612669
-0.02297585724771241
-0.02465680783168352
0.07916619772872398
-0.04042400172415898
0.07258961433227026
0.003980922678723864
0.04521127813233825
0.030179589971269658
-0.05917158577823649
-0.06883102941733292
-0.04746871822766067
-0.059013670040800874
-0.02949690285307798
-0.11188105546382716
0.005481107740498542
-0.04288450668984522
0.074151612692918
0.03194876714010441
-0.061750113192956105
-0.006315797796387503
0.05037875441432548
0.0005056490607785633
0.056132782786518794
-0.08504520782142176
0.03918554467954548
0.01453826888393332
0.1330347201917829
-0.07092161357000586
-0.036647641475231765
-0.0733448684596059
-0.025979202985290738
-0.1730911202527797
-0.07766704435336831
-0.08279123154057996
0.09188061652125491
-0.04724740366273329
0.1085154863670903
-0.01925603845426558
-0.12597523785060094
0.05900943571168471
-0.02923318272837751
0.03469363278549693
-0.045362253036496686
-0.09174520079835592
0.08628803302713108
-0.037243174869638095
0.03473983262181998
-0.1234783223685801
-0.009038397250516191
-0.0568311741014756
0.06834414146534432
-0.1973740722964335
-0.028493488975029672
